{"learner":{"attributes":{"scikit_learn":"{\"_estimator_type\": \"classifier\"}"},"feature_names":["sentiment_score","contains_cta","caption_length","brightness","contrast","face_detected"],"feature_types":["float","i","int","float","float","float"],"gradient_booster":{"model":{"gbtree_model_param":{"num_parallel_tree":"1","num_trees":"300"},"iteration_indptr":[0,3,6,9,12,15,18,21,24,27,30,33,36,39,42,45,48,51,54,57,60,63,66,69,72,75,78,81,84,87,90,93,96,99,102,105,108,111,114,117,120,123,126,129,132,135,138,141,144,147,150,153,156,159,162,165,168,171,174,177,180,183,186,189,192,195,198,201,204,207,210,213,216,219,222,225,228,231,234,237,240,243,246,249,252,255,258,261,264,267,270,273,276,279,282,285,288,291,294,297,300],"tree_info":[0,1,2,0,1,2,0,1,2,0,1,2,0,1,2,0,1,2,0,1,2,0,1,2,0,1,2,0,1,2,0,1,2,0,1,2,0,1,2,0,1,2,0,1,2,0,1,2,0,1,2,0,1,2,0,1,2,0,1,2,0,1,2,0,1,2,0,1,2,0,1,2,0,1,2,0,1,2,0,1,2,0,1,2,0,1,2,0,1,2,0,1,2,0,1,2,0,1,2,0,1,2,0,1,2,0,1,2,0,1,2,0,1,2,0,1,2,0,1,2,0,1,2,0,1,2,0,1,2,0,1,2,0,1,2,0,1,2,0,1,2,0,1,2,0,1,2,0,1,2,0,1,2,0,1,2,0,1,2,0,1,2,0,1,2,0,1,2,0,1,2,0,1,2,0,1,2,0,1,2,0,1,2,0,1,2,0,1,2,0,1,2,0,1,2,0,1,2,0,1,2,0,1,2,0,1,2,0,1,2,0,1,2,0,1,2,0,1,2,0,1,2,0,1,2,0,1,2,0,1,2,0,1,2,0,1,2,0,1,2,0,1,2,0,1,2,0,1,2,0,1,2,0,1,2,0,1,2,0,1,2,0,1,2,0,1,2,0,1,2,0,1,2,0,1,2,0,1,2,0,1,2,0,1,2,0,1,2,0,1,2,0,1,2,0,1,2,0,1,2],"trees":[{"base_weights":[-1.0830369E-2,-1.8987347E-1,8.5714287E-1,-1.9384618E-1,-1.6574629E-2,3.4054056E-1,-7.663455E-9,-2.2556396E-1,4.736842E-1,1.7999999E-1,-3.8461542E-1,-3.2511625E-8,2.4545455E-1,-3.2511625E-8,-4.83871E-1,1.2857142E-1,-1.2857145E-1,-1.2857145E-1,1.2857142E-1,3.1034475E-2,-1.972603E-1],"categories":[],"categories_nodes":[],"categories_segments":[],"categories_sizes":[],"default_left":[0,0,0,0,0,0,0,0,0,0,0,0,0,0,0,0,0,0,0,0,0],"id":0,"left_children":[1,3,5,-1,7,-1,-1,9,11,-1,13,15,-1,17,19,-1,-1,-1,-1,-1,-1],"loss_changes":[4.9457574E0,2.0715423E0,1.2972972E0,0E0,2.1674075E0,0E0,0E0,2.1711974E0,1.0334928E0,0E0,4.962778E-1,8.5714287E-1,0E0,8.5714287E-1,1.1219773E0,0E0,0E0,0E0,0E0,0E0,0E0],"parents":[2147483647,0,0,1,1,2,2,4,4,7,7,8,8,10,10,11,11,13,13,14,14],"right_children":[2,4,6,-1,8,-1,-1,10,12,-1,14,16,-1,18,20,-1,-1,-1,-1,-1,-1],"split_conditions":[2.2367986E2,3.1E1,2.3602107E2,-1.9384618E-1,3.772E-1,3.4054056E-1,-7.663455E-9,0E0,6.441086E1,1.7999999E-1,1.7999292E2,5.562E-1,2.4545455E-1,1.2971016E2,1E0,1.2857142E-1,-1.2857145E-1,-1.2857145E-1,1.2857142E-1,3.1034475E-2,-1.972603E-1],"split_indices":[3,2,3,0,0,0,0,0,4,0,3,0,0,3,5,0,0,0,0,0,0],"split_type":[0,0,0,0,0,0,0,0,0,0,0,0,0,0,0,0,0,0,0,0,0],"sum_hessian":[2.9777777E1,2.5333332E1,4.444444E0,6.222222E0,1.911111E1,3.111111E0,1.3333333E0,1.3777777E1,5.333333E0,1.7777777E0,1.1999999E1,2.6666665E0,2.6666665E0,2.6666665E0,9.333333E0,1.3333333E0,1.3333333E0,1.3333333E0,1.3333333E0,2.222222E0,7.1111107E0],"tree_param":{"num_deleted":"0","num_feature":"6","num_nodes":"21","size_leaf_vector":"1"}},{"base_weights":[2.1660607E-2,1.7098442E-1,-2.9032263E-1,6.233766E-1,-1.2000004E-1,7.2E-2,-4.285715E-1,2.8536585E-1,1.9999997E-1,2.4545455E-1,-4.1584164E-1,-1.8679248E-1,-3.2511625E-8,-6.206898E-2,1.7999999E-1,-5.555556E-1,3.1034475E-2,-1.2857145E-1,1.2857142E-1,-7.663455E-9,-1.956522E-1],"categories":[],"categories_nodes":[],"categories_segments":[],"categories_sizes":[],"default_left":[0,0,0,0,0,0,0,0,0,0,0,0,0,0,0,0,0,0,0,0,0],"id":1,"left_children":[1,3,5,7,9,-1,11,-1,13,-1,15,-1,17,-1,-1,19,-1,-1,-1,-1,-1],"loss_changes":[1.4834702E0,2.8977323E0,8.6046094E-1,9.972756E-1,4.1951394E0,0E0,7.115904E-1,0E0,9.3793106E-1,0E0,8.716662E-1,0E0,8.5714287E-1,0E0,0E0,4.8309207E-1,0E0,0E0,0E0,0E0,0E0],"parents":[2147483647,0,0,1,1,2,2,3,3,4,4,6,6,8,8,10,10,12,12,15,15],"right_children":[2,4,6,8,10,-1,12,-1,14,-1,16,-1,18,-1,-1,20,-1,-1,-1,-1,-1],"split_conditions":[3.772E-1,2.0164389E2,1E0,3.6E1,3E1,7.2E-2,6.820086E1,2.8536585E-1,2.5E-1,2.4545455E-1,4.6E1,-1.8679248E-1,4.588E-1,-6.206898E-2,1.7999999E-1,-1.511E-1,3.1034475E-2,-1.2857145E-1,1.2857142E-1,-7.663455E-9,-1.956522E-1],"split_indices":[0,3,5,2,2,0,4,0,0,0,2,0,0,0,0,0,0,0,0,0,0],"split_type":[0,0,0,0,0,0,0,0,0,0,0,0,0,0,0,0,0,0,0,0,0],"sum_hessian":[2.9777777E1,2.0444443E1,9.333333E0,7.5555553E0,1.2888888E1,1.7777777E0,7.5555553E0,3.5555553E0,3.9999998E0,2.6666665E0,1.0222221E1,4.8888884E0,2.6666665E0,2.222222E0,1.7777777E0,7.9999995E0,2.222222E0,1.3333333E0,1.3333333E0,1.3333333E0,6.666666E0],"tree_param":{"num_deleted":"0","num_feature":"6","num_nodes":"21","size_leaf_vector":"1"}},{"base_weights":[-1.0830369E-2,1.0480345E-1,-4.7368425E-1,-1.7355376E-1,3.8461536E-1,-7.663455E-9,-1.8E-1,1.7999999E-1,-3.4285718E-1,-1.4400001E-1,5.643564E-1,-1.7560977E-1,-1.643836E-1,9.473684E-1,5.6603737E-2,1.7999999E-1,-4.7368425E-1,1.2413793E-1,3.4054056E-1,5.454545E-1,-1.5517244E-1,-7.663455E-9,-1.8E-1,-7.663455E-9,2.5714284E-1],"categories":[],"categories_nodes":[],"categories_segments":[],"categories_sizes":[],"default_left":[0,0,0,0,0,0,0,0,0,0,0,0,0,0,0,0,0,0,0,0,0,0,0,0,0],"id":2,"left_children":[1,3,5,7,9,-1,-1,-1,11,-1,13,-1,15,17,19,-1,21,-1,-1,23,-1,-1,-1,-1,-1],"loss_changes":[1.6969185E0,2.0485597E0,3.7894738E-1,1.9664701E0,2.2911801E0,0E0,0E0,0E0,4.0872502E-1,0E0,2.1288214E0,0E0,2.2018745E0,1.6481066E-1,1.93411E0,0E0,3.7894738E-1,0E0,0E0,6.233767E-1,0E0,0E0,0E0,0E0,0E0],"parents":[2147483647,0,0,1,1,2,2,3,3,4,4,8,8,10,10,12,12,13,13,14,14,16,16,19,19],"right_children":[2,4,6,8,10,-1,-1,-1,12,-1,14,-1,16,18,20,-1,22,-1,-1,24,-1,-1,-1,-1,-1],"split_conditions":[2.2304636E2,2.0164389E2,-1.027E-1,2.8E1,0E0,-7.663455E-9,-1.8E-1,1.7999999E-1,3.6E1,-1.4400001E-1,2.1518628E2,-1.7560977E-1,3.7E1,4.06E-2,3.412E-1,1.7999999E-1,4.06E-2,1.2413793E-1,3.4054056E-1,3.1E1,-1.5517244E-1,-7.663455E-9,-1.8E-1,-7.663455E-9,2.5714284E-1],"split_indices":[3,3,0,2,0,0,0,0,2,0,3,0,2,0,0,0,0,0,0,2,0,0,0,0,0],"split_type":[0,0,0,0,0,0,0,0,0,0,0,0,0,0,0,0,0,0,0,0,0,0,0,0,0],"sum_hessian":[2.9777777E1,2.4444443E1,5.333333E0,1.2444444E1,1.1999999E1,1.3333333E0,3.9999998E0,1.7777777E0,1.0666666E1,1.7777777E0,1.0222221E1,3.5555553E0,7.1111107E0,5.333333E0,4.8888884E0,1.7777777E0,5.333333E0,2.222222E0,3.111111E0,2.6666665E0,2.222222E0,1.3333333E0,3.9999998E0,1.3333333E0,1.3333333E0],"tree_param":{"num_deleted":"0","num_feature":"6","num_nodes":"25","size_leaf_vector":"1"}},{"base_weights":[-7.390421E-3,-1.6146675E-1,6.6629225E-1,-1.7519155E-1,-1.3512219E-2,2.6694095E-1,-9.239355E-3,-1.9178353E-1,3.7347415E-1,1.4657828E-1,-3.3700815E-1,-1.8386802E-2,1.9424136E-1,3.1334378E-2,-4.37674E-1,1.0304112E-1,-1.195424E-1,1.3227768E-1,-1.20228074E-1,2.0458218E-2,-1.8067564E-1],"categories":[],"categories_nodes":[],"categories_segments":[],"categories_sizes":[],"default_left":[0,0,0,0,0,0,0,0,0,0,0,0,0,0,0,0,0,0,0,0,0],"id":3,"left_children":[1,3,5,-1,7,-1,-1,9,11,-1,13,15,-1,17,19,-1,-1,-1,-1,-1,-1],"loss_changes":[3.2396455E0,1.5775762E0,9.328983E-1,0E0,1.4381778E0,0E0,0E0,1.5698934E0,7.1908516E-1,0E0,4.7023952E-1,6.433711E-1,0E0,8.0955756E-1,8.516612E-1,0E0,0E0,0E0,0E0,0E0,0E0],"parents":[2147483647,0,0,1,1,2,2,4,4,7,7,8,8,10,10,11,11,13,13,14,14],"right_children":[2,4,6,-1,8,-1,-1,10,12,-1,14,16,-1,18,20,-1,-1,-1,-1,-1,-1],"split_conditions":[2.2367986E2,3.1E1,2.3602107E2,-1.7519155E-1,3.772E-1,2.6694095E-1,-9.239355E-3,0E0,6.441086E1,1.4657828E-1,5.0609707E1,5.562E-1,1.9424136E-1,1.885038E2,1E0,1.0304112E-1,-1.195424E-1,1.3227768E-1,-1.20228074E-1,2.0458218E-2,-1.8067564E-1],"split_indices":[3,2,3,0,0,0,0,0,4,0,4,0,0,3,5,0,0,0,0,0,0],"split_type":[0,0,0,0,0,0,0,0,0,0,0,0,0,0,0,0,0,0,0,0,0],"sum_hessian":[2.9174423E1,2.4362791E1,4.8116326E0,5.5544133E0,1.8808378E1,3.434092E0,1.3775407E0,1.3221914E1,5.5864635E0,1.9098511E0,1.1312063E1,2.6826808E0,2.9037824E0,2.5757961E0,8.736267E0,1.4236524E0,1.2590286E0,1.3118393E0,1.2639568E0,2.288301E0,6.447966E0],"tree_param":{"num_deleted":"0","num_feature":"6","num_nodes":"21","size_leaf_vector":"1"}},{"base_weights":[1.8939236E-2,1.437824E-1,-2.5317878E-1,4.9122107E-1,-9.829785E-2,5.9285976E-2,-3.803954E-1,1.3928093E-1,2.2843102E-1,1.9322385E-1,-3.6315054E-1,-1.7068404E-1,7.895188E-3,1.5157822E-1,-6.8257615E-2,-1.7585795E-1,-3.1418614E-2,-1.16624475E-1,1.1255542E-1,-2.958133E-1,1.3050504E-1,8.958184E-3,-1.3773462E-1],"categories":[],"categories_nodes":[],"categories_segments":[],"categories_sizes":[],"default_left":[0,0,0,0,0,0,0,0,0,0,0,0,0,0,0,0,0,0,0,0,0,0,0],"id":4,"left_children":[1,3,5,7,9,-1,11,13,-1,-1,15,-1,17,-1,-1,-1,19,-1,-1,21,-1,-1,-1],"loss_changes":[1.0679966E0,1.852717E0,6.436298E-1,7.476101E-1,2.8837967E0,0E0,5.95502E-1,8.02631E-1,0E0,0E0,7.638695E-1,0E0,6.739472E-1,0E0,0E0,0E0,7.8320223E-1,0E0,0E0,2.2551331E-1,0E0,0E0,0E0],"parents":[2147483647,0,0,1,1,2,2,3,3,4,4,6,6,7,7,10,10,12,12,16,16,19,19],"right_children":[2,4,6,8,10,-1,12,14,-1,-1,16,-1,18,-1,-1,-1,20,-1,-1,22,-1,-1,-1],"split_conditions":[3.772E-1,2.0164389E2,1E0,1.7999292E2,3E1,5.9285976E-2,6.820086E1,1.2971016E2,2.2843102E-1,1.9322385E-1,4.1E1,-1.7068404E-1,4.588E-1,1.5157822E-1,-6.8257615E-2,-1.7585795E-1,6.1028908E1,-1.16624475E-1,1.1255542E-1,4.503485E1,1.3050504E-1,8.958184E-3,-1.3773462E-1],"split_indices":[0,3,5,3,2,0,4,3,0,0,2,0,0,0,0,0,4,0,0,4,0,0,0],"split_type":[0,0,0,0,0,0,0,0,0,0,0,0,0,0,0,0,0,0,0,0,0,0,0],"sum_hessian":[2.936594E1,2.045373E1,8.91221E0,7.97651E0,1.247722E1,1.8397055E0,7.0725045E0,4.12256E0,3.85395E0,2.9043996E0,9.572821E0,4.4475455E0,2.6249592E0,1.8746624E0,2.2478974E0,5.26547E0,4.30735E0,1.2339582E0,1.391001E0,2.98253E0,1.32482E0,1.2689681E0,1.7135621E0],"tree_param":{"num_deleted":"0","num_feature":"6","num_nodes":"23","size_leaf_vector":"1"}},{"base_weights":[-1.1647028E-2,8.3285645E-2,-4.1663158E-1,-1.4071451E-1,2.934457E-1,8.024924E-3,-1.637007E-1,1.5403871E-1,-2.984217E-1,-1.3128087E-1,4.330559E-1,-3.9569664E-1,4.208101E-3,-4.150902E-2,6.895422E-1,-1.5768187E-1,-2.3511435E-1,-2.7258283E-1,9.74283E-2,2.8232142E-1,1.8236448E-1,7.699868E-2,-1.5699984E-1,-1.2936136E-1,1.327445E-3,-1.2719908E-1,2.0226215E-1],"categories":[],"categories_nodes":[],"categories_segments":[],"categories_sizes":[],"default_left":[0,0,0,0,0,0,0,0,0,0,0,0,0,0,0,0,0,0,0,0,0,0,0,0,0,0,0],"id":5,"left_children":[1,3,5,7,9,-1,-1,-1,11,-1,13,15,-1,17,19,-1,21,23,-1,-1,25,-1,-1,-1,-1,-1,-1],"loss_changes":[1.1969852E0,1.2334411E0,3.5257816E-1,1.4876338E0,1.5560877E0,0E0,0E0,0E0,3.415262E-1,0E0,1.4582531E0,5.299163E-2,0E0,5.171188E-1,8.082845E-1,0E0,9.2728174E-1,1.622318E-1,0E0,0E0,1.4152433E0,0E0,0E0,0E0,0E0,0E0,0E0],"parents":[2147483647,0,0,1,1,2,2,3,3,4,4,8,8,10,10,11,11,13,13,14,14,16,16,17,17,20,20],"right_children":[2,4,6,8,10,-1,-1,-1,12,-1,14,16,-1,18,20,-1,22,24,-1,-1,26,-1,-1,-1,-1,-1,-1],"split_conditions":[2.2304636E2,2.0164389E2,-1.027E-1,2.8E1,0E0,8.024924E-3,-1.637007E-1,1.5403871E-1,1.916951E2,-1.3128087E-1,3.3E1,5.629844E1,4.208101E-3,4.364E-1,6.441086E1,-1.5768187E-1,7.630543E1,2.1843985E2,9.74283E-2,2.8232142E-1,7.185113E1,7.699868E-2,-1.5699984E-1,-1.2936136E-1,1.327445E-3,-1.2719908E-1,2.0226215E-1],"split_indices":[3,3,0,2,0,0,0,0,3,0,2,4,0,0,4,0,4,3,0,0,4,0,0,0,0,0,0],"split_type":[0,0,0,0,0,0,0,0,0,0,0,0,0,0,0,0,0,0,0,0,0,0,0,0,0,0,0],"sum_hessian":[2.9231436E1,2.4323984E1,4.907451E0,1.1934248E1,1.2389737E1,1.2849551E0,3.6224961E0,1.8800241E0,1.0054224E1,1.6444341E0,1.0745303E1,7.4640102E0,2.5902138E0,4.0640106E0,6.6812925E0,2.869491E0,4.594519E0,2.6487465E0,1.415264E0,3.8944006E0,2.7868917E0,1.7381921E0,2.856327E0,1.3303194E0,1.3184272E0,1.3099186E0,1.4769729E0],"tree_param":{"num_deleted":"0","num_feature":"6","num_nodes":"27","size_leaf_vector":"1"}},{"base_weights":[-5.175193E-3,-1.3935359E-1,5.442269E-1,-1.6183929E-1,-8.095837E-3,2.2308011E-1,-1.5817013E-2,-1.6331677E-1,3.07284E-1,1.1938314E-1,-2.949486E-1,-3.9299708E-2,1.6457234E-1,2.9558448E-2,-3.9040285E-1,8.217863E-2,-1.1253505E-1,1.1350078E-1,-1.10091336E-1,1.41871525E-2,-1.6520521E-1],"categories":[],"categories_nodes":[],"categories_segments":[],"categories_sizes":[],"default_left":[0,0,0,0,0,0,0,0,0,0,0,0,0,0,0,0,0,0,0,0,0],"id":6,"left_children":[1,3,5,-1,7,-1,-1,9,11,-1,13,15,-1,17,19,-1,-1,-1,-1,-1,-1],"loss_changes":[2.202601E0,1.2551757E0,7.3744357E-1,0E0,9.839333E-1,0E0,0E0,1.1100061E0,5.767091E-1,0E0,3.6644733E-1,4.8751482E-1,0E0,6.275735E-1,6.520823E-1,0E0,0E0,0E0,0E0,0E0,0E0],"parents":[2147483647,0,0,1,1,2,2,4,4,7,7,8,8,10,10,11,11,13,13,14,14],"right_children":[2,4,6,-1,8,-1,-1,10,12,-1,14,16,-1,18,20,-1,-1,-1,-1,-1,-1],"split_conditions":[2.2367986E2,3.1E1,2.3602107E2,-1.6183929E-1,3.772E-1,2.2308011E-1,-1.5817013E-2,0E0,6.441086E1,1.1938314E-1,5.0609707E1,5.562E-1,1.6457234E-1,1.885038E2,1E0,8.217863E-2,-1.1253505E-1,1.1350078E-1,-1.10091336E-1,1.41871525E-2,-1.6520521E-1],"split_indices":[3,2,3,0,0,0,0,0,4,0,4,0,0,3,5,0,0,0,0,0,0],"split_type":[0,0,0,0,0,0,0,0,0,0,0,0,0,0,0,0,0,0,0,0,0],"sum_hessian":[2.7849997E1,2.2983242E1,4.8667564E0,4.909065E0,1.8074177E1,3.4641204E0,1.4026358E0,1.2435793E1,5.638383E0,1.9781342E0,1.0457659E1,2.6578455E0,2.9805377E0,2.5338619E0,7.923797E0,1.470526E0,1.1873195E0,1.3725146E0,1.1613474E0,2.3128514E0,5.6109457E0],"tree_param":{"num_deleted":"0","num_feature":"6","num_nodes":"21","size_leaf_vector":"1"}},{"base_weights":[1.9150417E-2,8.85273E-2,-3.4904602E-1,2.2579107E-1,-2.4863988E-1,-1.4792079E-1,1.2289614E-2,1.9195503E-1,7.0442446E-2,-4.0729982E-1,8.188703E-2,2.9199466E-1,-3.7756854E-1,-1.6197029E-1,6.0648727E-3,1.2874654E-1,-1.0223876E-1,1.0803688E-1,1.700774E-1,4.959846E-3,-1.5210696E-1,-2.158164E-2,1.0714925E-1],"categories":[],"categories_nodes":[],"categories_segments":[],"categories_sizes":[],"default_left":[0,0,0,0,0,0,0,0,0,0,0,0,0,0,0,0,0,0,0,0,0,0,0],"id":7,"left_children":[1,3,5,7,9,-1,-1,-1,11,13,15,17,19,-1,-1,-1,-1,21,-1,-1,-1,-1,-1],"loss_changes":[7.8005064E-1,1.2351598E0,2.9274803E-1,1.1531973E0,4.448345E-1,0E0,0E0,0E0,1.5663714E0,3.2094848E-1,6.420177E-1,4.637155E-1,2.782845E-1,0E0,0E0,0E0,0E0,3.5991728E-1,0E0,0E0,0E0,0E0,0E0],"parents":[2147483647,0,0,1,1,2,2,3,3,4,4,8,8,9,9,10,10,11,11,12,12,17,17],"right_children":[2,4,6,8,10,-1,-1,-1,12,14,16,18,20,-1,-1,-1,-1,22,-1,-1,-1,-1,-1],"split_conditions":[2.2367986E2,3.772E-1,4.364E-1,3E1,4E1,-1.4792079E-1,1.2289614E-2,1.9195503E-1,2.101033E2,2.1135594E2,1.6774553E2,3.612E-1,4.9042896E1,-1.6197029E-1,6.0648727E-3,1.2874654E-1,-1.0223876E-1,4.1E1,1.700774E-1,4.959846E-3,-1.5210696E-1,-2.158164E-2,1.0714925E-1],"split_indices":[3,0,0,2,2,0,0,0,3,3,3,0,4,0,0,0,0,2,0,0,0,0,0],"split_type":[0,0,0,0,0,0,0,0,0,0,0,0,0,0,0,0,0,0,0,0,0,0,0],"sum_hessian":[2.832748E1,2.4475319E1,3.8521612E0,1.7628805E1,6.8465147E0,2.6202965E0,1.2318648E0,3.9586914E0,1.3670114E1,4.4690175E0,2.3774972E0,9.379812E0,4.290301E0,3.2103848E0,1.2586325E0,1.2967776E0,1.0807197E0,6.454211E0,2.9256012E0,1.2765038E0,3.013797E0,4.160094E0,2.2941175E0],"tree_param":{"num_deleted":"0","num_feature":"6","num_nodes":"23","size_leaf_vector":"1"}},{"base_weights":[-1.4172715E-2,6.551307E-2,-3.7055624E-1,1.4969355E-1,-3.379761E-1,1.1383045E-2,-1.5050477E-1,-1.5469736E-1,2.6143777E-1,-1.4727499E-1,1.4153695E-2,-3.5283843E-1,9.286344E-2,3.9720142E-1,-1.7641853E-1,-1.3863337E-1,-2.603277E-2,2.1574484E-1,2.1733299E-1,8.116845E-2,-1.4129412E-1,1.0983703E-1,-1.24550946E-1],"categories":[],"categories_nodes":[],"categories_segments":[],"categories_sizes":[],"default_left":[0,0,0,0,0,0,0,0,0,0,0,0,0,0,0,0,0,0,0,0,0,0,0],"id":8,"left_children":[1,3,5,7,9,-1,-1,11,13,-1,-1,15,-1,17,19,-1,-1,21,-1,-1,-1,-1,-1],"loss_changes":[8.504856E-1,8.8705695E-1,3.118556E-1,7.5707096E-1,2.9165035E-1,0E0,0E0,6.8742007E-1,1.0082844E0,0E0,0E0,1.01569235E-1,0E0,5.773438E-1,7.104225E-1,0E0,0E0,1.041177E0,0E0,0E0,0E0,0E0,0E0],"parents":[2147483647,0,0,1,1,2,2,3,3,4,4,7,7,8,8,11,11,13,13,14,14,17,17],"right_children":[2,4,6,8,10,-1,-1,12,14,-1,-1,16,-1,18,20,-1,-1,22,-1,-1,-1,-1,-1],"split_conditions":[2.2304636E2,7.838104E1,-1.027E-1,5.4928303E1,9.349636E1,1.1383045E-2,-1.5050477E-1,2.1338437E2,2.1518628E2,-1.4727499E-1,1.4153695E-2,1.916951E2,9.286344E-2,2.101033E2,5.9061592E1,-1.3863337E-1,-2.603277E-2,2.080291E2,2.1733299E-1,8.116845E-2,-1.4129412E-1,1.0983703E-1,-1.24550946E-1],"split_indices":[3,4,0,4,4,0,0,3,3,0,0,3,0,3,4,0,0,3,0,0,0,0,0],"split_type":[0,0,0,0,0,0,0,0,0,0,0,0,0,0,0,0,0,0,0,0,0,0,0],"sum_hessian":[2.8093204E1,2.362658E1,4.466626E0,2.0068636E1,3.5579436E0,1.2580469E0,3.2085795E0,5.2857857E0,1.4782849E1,2.3501372E0,1.2078063E0,3.872816E0,1.4129698E0,1.1354938E1,3.4279118E0,2.2229788E0,1.6498371E0,8.371949E0,2.9829884E0,1.394031E0,2.0338807E0,7.099481E0,1.2724681E0],"tree_param":{"num_deleted":"0","num_feature":"6","num_nodes":"23","size_leaf_vector":"1"}},{"base_weights":[-6.945011E-4,-1.1589149E-1,4.5338696E-1,-1.5045919E-1,1.496829E-3,1.9141008E-1,-1.9187415E-2,-1.3860844E-1,2.7161592E-1,1.0680499E-1,-2.6348072E-1,1.8347342E-1,5.1317643E-2,2.4553018E-2,-3.540365E-1,-1.3321933E-1,1.2195451E-1,9.940133E-2,-1.0309644E-1,1.2649743E-2,-1.5453903E-1],"categories":[],"categories_nodes":[],"categories_segments":[],"categories_sizes":[],"default_left":[0,0,0,0,0,0,0,0,0,0,0,0,0,0,0,0,0,0,0,0,0],"id":9,"left_children":[1,3,5,-1,7,-1,-1,9,11,-1,13,-1,15,17,19,-1,-1,-1,-1,-1,-1],"loss_changes":[1.4802724E0,1.0223706E0,5.8785903E-1,0E0,7.301414E-1,0E0,0E0,8.788854E-1,4.6195775E-1,0E0,2.8839147E-1,0E0,1.0759214E0,5.0923836E-1,5.465765E-1,0E0,0E0,0E0,0E0,0E0,0E0],"parents":[2147483647,0,0,1,1,2,2,4,4,7,7,8,8,10,10,12,12,13,13,14,14],"right_children":[2,4,6,-1,8,-1,-1,10,12,-1,14,-1,16,18,20,-1,-1,-1,-1,-1,-1],"split_conditions":[2.2367986E2,3.1E1,2.3602107E2,-1.5045919E-1,3.772E-1,1.9141008E-1,-1.9187415E-2,0E0,3.6E1,1.0680499E-1,5.0609707E1,1.8347342E-1,6.441086E1,1.885038E2,1E0,-1.3321933E-1,1.2195451E-1,9.940133E-2,-1.0309644E-1,1.2649743E-2,-1.5453903E-1],"split_indices":[3,2,3,0,0,0,0,0,2,0,4,0,4,3,5,0,0,0,0,0,0],"split_type":[0,0,0,0,0,0,0,0,0,0,0,0,0,0,0,0,0,0,0,0,0],"sum_hessian":[2.6294228E1,2.1567497E1,4.7267303E0,4.269409E0,1.7298088E1,3.3115234E0,1.4152067E0,1.1710797E1,5.587291E0,1.9874334E0,9.723364E0,1.4985723E0,4.0887184E0,2.5000947E0,7.2232695E0,1.6029484E0,2.48577E0,1.4184222E0,1.0816724E0,2.301381E0,4.9218884E0],"tree_param":{"num_deleted":"0","num_feature":"6","num_nodes":"21","size_leaf_vector":"1"}},{"base_weights":[1.7460091E-2,7.621174E-2,-3.0750248E-1,1.8913828E-1,-2.1279694E-1,-1.336128E-1,9.942677E-3,5.310445E-1,5.8624405E-2,-3.6699146E-1,2.7734308E-2,6.048624E-2,1.8445118E-1,2.4616706E-1,-3.4493202E-1,-1.4875132E-1,8.535619E-3,3.9769462E-1,-3.438761E-2,-1.4198218E-1,6.443963E-3,-1.0475328E-2,1.5351775E-1,-1.4025895E-1,1.1369529E-1],"categories":[],"categories_nodes":[],"categories_segments":[],"categories_sizes":[],"default_left":[0,0,0,0,0,0,0,0,0,0,0,0,0,0,0,0,0,0,0,0,0,0,0,0,0],"id":10,"left_children":[1,3,5,7,9,-1,-1,11,13,15,-1,-1,-1,17,19,-1,-1,21,23,-1,-1,-1,-1,-1,-1],"loss_changes":[5.6079763E-1,8.4434277E-1,2.2648796E-1,7.8302354E-1,3.8188034E-1,0E0,0E0,1.1744857E-2,1.1693581E0,2.7461332E-1,0E0,0E0,0E0,4.5435292E-1,2.4353743E-1,0E0,0E0,3.5383046E-1,9.9287623E-1,0E0,0E0,0E0,0E0,0E0,0E0],"parents":[2147483647,0,0,1,1,2,2,3,3,4,4,7,7,8,8,9,9,13,13,14,14,17,17,18,18],"right_children":[2,4,6,8,10,-1,-1,12,14,16,-1,-1,-1,18,20,-1,-1,22,24,-1,-1,-1,-1,-1,-1],"split_conditions":[2.2367986E2,3.772E-1,4.364E-1,3E1,4E1,-1.336128E-1,9.942677E-3,1.9776646E2,2.101033E2,6.9E-1,2.7734308E-2,6.048624E-2,1.8445118E-1,7.21765E1,4.6E1,-1.4875132E-1,8.535619E-3,1.7999292E2,7.956339E1,-1.4198218E-1,6.443963E-3,-1.0475328E-2,1.5351775E-1,-1.4025895E-1,1.1369529E-1],"split_indices":[3,0,0,2,2,0,0,3,3,0,0,0,0,4,2,0,0,3,4,0,0,0,0,0,0],"split_type":[0,0,0,0,0,0,0,0,0,0,0,0,0,0,0,0,0,0,0,0,0,0,0,0,0],"sum_hessian":[2.7145815E1,2.3637709E1,3.5081072E0,1.7245E1,6.392707E0,2.278465E0,1.2296422E0,3.9163902E0,1.3328611E1,4.112825E0,2.2798822E0,1.4848845E0,2.4315057E0,9.366003E0,3.9626076E0,2.910596E0,1.2022288E0,5.8103204E0,3.5556831E0,2.718695E0,1.2439128E0,1.3567734E0,4.453547E0,1.6723425E0,1.8833406E0],"tree_param":{"num_deleted":"0","num_feature":"6","num_nodes":"25","size_leaf_vector":"1"}},{"base_weights":[-1.6989548E-2,-1.3428596E-1,3.6597766E-2,1.9040242E-1,-1.3056982E-1,-2.2256863E-1,4.033283E-1,1.5055872E-1,-2.5450605E-1,9.110236E-3,-3.01194E-1,5.454089E-1,-1.049701E-1,-7.612783E-2,-1.5373537E-1,1.1097008E-2,-1.3685814E-1,-1.5907105E-3,6.377072E-1,2.3248693E-1,-3.54304E-1,2.1142884E-1,6.3681476E-2,-4.5175917E-2,1.7856874E-1,-1.3528475E-1,-1.4724547E-2],"categories":[],"categories_nodes":[],"categories_segments":[],"categories_sizes":[],"default_left":[0,0,0,0,0,0,0,0,0,0,0,0,0,0,0,0,0,0,0,0,0,0,0,0,0,0,0],"id":11,"left_children":[1,-1,3,5,7,9,11,-1,13,-1,15,17,-1,19,-1,-1,-1,-1,21,23,25,-1,-1,-1,-1,-1,-1],"loss_changes":[6.581257E-1,0E0,6.8451667E-1,1.3005135E0,1.1378528E0,1.1511633E-1,1.201156E0,0E0,4.873252E-1,0E0,2.3475406E-1,4.269545E-1,0E0,7.63763E-1,0E0,0E0,0E0,0E0,5.423808E-2,6.9638526E-1,1.12691164E-1,0E0,0E0,0E0,0E0,0E0,0E0],"parents":[2147483647,0,0,2,2,3,3,4,4,5,5,6,6,8,8,10,10,11,11,13,13,18,18,19,19,20,20],"right_children":[2,-1,4,6,8,10,12,-1,14,-1,16,18,-1,20,-1,-1,-1,-1,22,24,26,-1,-1,-1,-1,-1,-1],"split_conditions":[-1.511E-1,-1.3428596E-1,3.612E-1,3.3E1,2.6E1,5.309625E1,7.838104E1,1.5055872E-1,2.1392769E2,9.110236E-3,2.7E1,4.698321E1,-1.049701E-1,3.7E1,-1.5373537E-1,1.1097008E-2,-1.3685814E-1,-1.5907105E-3,4.6E1,3.6E1,6.369E-1,2.1142884E-1,6.3681476E-2,-4.5175917E-2,1.7856874E-1,-1.3528475E-1,-1.4724547E-2],"split_indices":[0,0,0,2,2,4,4,0,3,0,2,4,0,2,0,0,0,0,2,2,0,0,0,0,0,0,0],"split_type":[0,0,0,0,0,0,0,0,0,0,0,0,0,0,0,0,0,0,0,0,0,0,0,0,0,0,0],"sum_hessian":[2.6809624E1,2.1532118E0,2.465641E1,1.27690735E1,1.1887338E1,4.3285456E0,8.440527E0,1.448164E0,1.0439174E1,1.1720042E0,3.1565416E0,7.333183E0,1.1073445E0,6.937074E0,3.5020998E0,1.2313318E0,1.9252098E0,1.1879075E0,6.1452756E0,3.3664765E0,3.5705976E0,4.7413883E0,1.4038873E0,1.9218142E0,1.4446623E0,2.349279E0,1.2213185E0],"tree_param":{"num_deleted":"0","num_feature":"6","num_nodes":"27","size_leaf_vector":"1"}},{"base_weights":[2.4079136E-3,-9.746271E-2,3.883058E-1,-1.418589E-1,1.119929E-2,1.6787727E-1,-1.8009312E-2,-6.283346E-2,1.258716E-1,9.186112E-2,-1.3919814E-1,-4.027429E-3,-1.4856479E-1,-4.339093E-2,1.595887E-1],"categories":[],"categories_nodes":[],"categories_segments":[],"categories_sizes":[],"default_left":[0,0,0,0,0,0,0,0,0,0,0,0,0,0,0],"id":12,"left_children":[1,3,5,-1,7,-1,-1,9,-1,-1,11,13,-1,-1,-1],"loss_changes":[1.0198182E0,8.635697E-1,4.512741E-1,0E0,5.492153E-1,0E0,0E0,4.7971117E-1,0E0,0E0,6.495025E-1,8.9244604E-1,0E0,0E0,0E0],"parents":[2147483647,0,0,1,1,2,2,4,4,7,7,10,10,11,11],"right_children":[2,4,6,-1,8,-1,-1,10,-1,-1,12,14,-1,-1,-1],"split_conditions":[2.2367986E2,3.1E1,2.3602107E2,-1.418589E-1,6.369E-1,1.6787727E-1,-1.8009312E-2,0E0,1.258716E-1,9.186112E-2,7.1921036E1,6.7063545E1,-1.4856479E-1,-4.339093E-2,1.595887E-1],"split_indices":[3,2,3,0,0,0,0,0,0,0,4,4,0,0,0],"split_type":[0,0,0,0,0,0,0,0,0,0,0,0,0,0,0],"sum_hessian":[2.4479406E1,2.0040382E1,4.439025E0,3.7462678E0,1.6294115E1,3.0323722E0,1.4066525E0,1.4509809E1,1.7843058E0,1.9716978E0,1.2538111E1,9.820743E0,2.7173684E0,8.358233E0,1.4625087E0],"tree_param":{"num_deleted":"0","num_feature":"6","num_nodes":"15","size_leaf_vector":"1"}},{"base_weights":[1.5325127E-2,5.5419426E-2,-1.3121839E-1,-3.774694E-2,2.0245706E-1,7.464081E-2,-3.1779653E-1,3.7656406E-1,-1.0025625E-1,3.1986997E-2,-4.1192427E-1,9.955043E-2,2.0316783E-1,9.930022E-2,-3.4783107E-1,-1.5564564E-1,-1.9718722E-2,9.3697086E-2,-9.781984E-2,-7.9980366E-2,1.0157814E-1,-1.4050135E-1,-4.9698083E-3],"categories":[],"categories_nodes":[],"categories_segments":[],"categories_sizes":[],"default_left":[0,0,0,0,0,0,0,0,0,0,0,0,0,0,0,0,0,0,0,0,0,0,0],"id":13,"left_children":[1,3,-1,5,-1,7,9,11,13,-1,15,17,-1,19,21,-1,-1,-1,-1,-1,-1,-1,-1],"loss_changes":[5.0961035E-1,1.4943283E0,0E0,7.49874E-1,0E0,9.499119E-1,3.1547815E-1,4.778083E-1,6.139448E-1,0E0,1.793961E-1,5.1655513E-1,0E0,7.269426E-1,2.1004993E-1,0E0,0E0,0E0,0E0,0E0,0E0,0E0,0E0],"parents":[2147483647,0,0,1,1,3,3,5,5,6,6,7,7,8,8,10,10,11,11,13,13,14,14],"right_children":[2,4,-1,6,-1,8,10,12,14,-1,16,18,-1,20,22,-1,-1,-1,-1,-1,-1,-1,-1],"split_conditions":[9.349636E1,7.956339E1,-1.3121839E-1,4.2E1,2.0245706E-1,5.4928303E1,4.4376343E1,5.2214684E1,3.3E1,3.1986997E-2,4.9E1,2.1129384E2,2.0316783E-1,6.1049885E1,3.8E1,-1.5564564E-1,-1.9718722E-2,9.3697086E-2,-9.781984E-2,-7.9980366E-2,1.0157814E-1,-1.4050135E-1,-4.9698083E-3],"split_indices":[4,4,0,2,0,4,4,4,2,0,2,3,0,4,2,0,0,0,0,0,0,0,0],"split_type":[0,0,0,0,0,0,0,0,0,0,0,0,0,0,0,0,0,0,0,0,0,0,0],"sum_hessian":[2.5739977E1,2.4452015E1,1.2879624E0,2.2071428E1,2.3805864E0,1.6273943E1,5.7974844E0,5.5463195E0,1.0727624E1,1.0282733E0,4.7692113E0,3.5794826E0,1.9668369E0,6.2714562E0,4.456168E0,3.26305E0,1.5061611E0,2.5639198E0,1.0155629E0,2.434606E0,3.83685E0,2.9641073E0,1.492061E0],"tree_param":{"num_deleted":"0","num_feature":"6","num_nodes":"23","size_leaf_vector":"1"}},{"base_weights":[-1.8023761E-2,-1.2205613E-1,2.892033E-2,1.6329564E-1,-1.225644E-1,-1.933248E-1,3.4247777E-1,1.319882E-1,-2.3583198E-1,8.130322E-3,-2.64035E-1,4.6642783E-1,-9.7927086E-2,-7.119586E-2,-1.4382282E-1,1.3337343E-2,-1.2517303E-1,1.9988403E-2,5.9220254E-1,2.0145538E-1,-3.2321984E-1,2.0076813E-1,5.7293788E-2,-3.9903037E-2,1.5328422E-1,-1.2697463E-1,-8.717176E-3],"categories":[],"categories_nodes":[],"categories_segments":[],"categories_sizes":[],"default_left":[0,0,0,0,0,0,0,0,0,0,0,0,0,0,0,0,0,0,0,0,0,0,0,0,0,0,0],"id":14,"left_children":[1,-1,3,5,7,9,11,-1,13,-1,15,17,-1,19,-1,-1,-1,-1,21,23,25,-1,-1,-1,-1,-1,-1],"loss_changes":[4.889112E-1,0E0,5.1380336E-1,9.15035E-1,8.66706E-1,8.635743E-2,9.152086E-1,0E0,3.9167953E-1,0E0,2.0478737E-1,3.7163353E-1,0E0,5.811792E-1,0E0,0E0,0E0,0E0,6.0461044E-2,5.0515807E-1,1.138373E-1,0E0,0E0,0E0,0E0,0E0,0E0],"parents":[2147483647,0,0,2,2,3,3,4,4,5,5,6,6,8,8,10,10,11,11,13,13,18,18,19,19,20,20],"right_children":[2,-1,4,6,8,10,12,-1,14,-1,16,18,-1,20,-1,-1,-1,-1,22,24,26,-1,-1,-1,-1,-1,-1],"split_conditions":[-1.511E-1,-1.2205613E-1,3.612E-1,3.3E1,2.6E1,5.309625E1,7.838104E1,1.319882E-1,2.1392769E2,8.130322E-3,2.7E1,5.0609707E1,-9.7927086E-2,3.7E1,-1.4382282E-1,1.3337343E-2,-1.2517303E-1,1.9988403E-2,4.5E1,3.6E1,1.8478842E2,2.0076813E-1,5.7293788E-2,-3.9903037E-2,1.5328422E-1,-1.2697463E-1,-8.717176E-3],"split_indices":[0,0,0,2,2,4,4,0,3,0,2,4,0,2,0,0,0,0,2,2,3,0,0,0,0,0,0],"split_type":[0,0,0,0,0,0,0,0,0,0,0,0,0,0,0,0,0,0,0,0,0,0,0,0,0,0,0],"sum_hessian":[2.5140242E1,1.8823428E0,2.3257898E1,1.2283653E1,1.0974246E1,4.081482E0,8.202171E0,1.3559382E0,9.618307E0,1.1410866E0,2.940395E0,7.175263E0,1.0269089E0,6.5102587E0,3.1080487E0,1.211268E0,1.7291272E0,2.083186E0,5.092077E0,3.223537E0,3.286722E0,3.7115822E0,1.3804947E0,1.8233203E0,1.4002166E0,2.1252222E0,1.1614996E0],"tree_param":{"num_deleted":"0","num_feature":"6","num_nodes":"27","size_leaf_vector":"1"}},{"base_weights":[5.30884E-3,-8.299039E-2,3.422421E-1,-1.3378316E-1,1.61889E-2,1.5216202E-1,-1.7585002E-2,1.1195262E-1,-5.706972E-2,1.5495722E-1,-2.0193163E-1,-6.2978934E-3,1.1037462E-1,-3.9297578E-1,8.81595E-2,-1.1872699E-1,7.737264E-2,-1.4064465E-1,-4.5301568E-2,1.3940634E-1,-7.147295E-2],"categories":[],"categories_nodes":[],"categories_segments":[],"categories_sizes":[],"default_left":[0,0,0,0,0,0,0,0,0,0,0,0,0,0,0,0,0,0,0,0,0],"id":15,"left_children":[1,3,5,-1,7,-1,-1,-1,9,11,13,15,-1,17,19,-1,-1,-1,-1,-1,-1],"loss_changes":[7.3712265E-1,7.1565026E-1,3.6974108E-1,0E0,4.5075548E-1,0E0,0E0,0E0,4.7642773E-1,2.2375952E-1,5.3587914E-1,5.8083624E-1,0E0,3.2637775E-2,6.5244687E-1,0E0,0E0,0E0,0E0,0E0,0E0],"parents":[2147483647,0,0,1,1,2,2,4,4,8,8,9,9,10,10,11,11,13,13,14,14],"right_children":[2,4,6,-1,8,-1,-1,-1,10,12,14,16,-1,18,20,-1,-1,-1,-1,-1,-1],"split_conditions":[2.2367986E2,3.1E1,2.3602107E2,-1.3378316E-1,3.3E1,1.5216202E-1,-1.7585002E-2,1.1195262E-1,1.7999292E2,5.267E-1,6.7063545E1,1.3088391E2,1.1037462E-1,2.1291731E2,7.1921036E1,-1.1872699E-1,7.737264E-2,-1.4064465E-1,-4.5301568E-2,1.3940634E-1,-7.147295E-2],"split_indices":[3,2,3,0,2,0,0,0,3,0,4,3,0,3,4,0,0,0,0,0,0],"split_type":[0,0,0,0,0,0,0,0,0,0,0,0,0,0,0,0,0,0,0,0,0],"sum_hessian":[2.2821758E1,1.8680021E1,4.1417365E0,3.2586024E0,1.5421419E1,2.7462692E0,1.395467E0,1.9287497E0,1.349267E1,5.448415E0,8.044255E0,3.6528492E0,1.7955657E0,4.636289E0,3.4079654E0,1.2752048E0,2.3776445E0,2.816147E0,1.8201423E0,1.3857462E0,2.0222192E0],"tree_param":{"num_deleted":"0","num_feature":"6","num_nodes":"21","size_leaf_vector":"1"}},{"base_weights":[1.2328867E-2,7.749949E-2,-2.510457E-1,2.1444182E-1,-1.2129309E-1,-3.357023E-1,1.4373761E-2,1.1715544E-1,1.7731333E-1,2.4414335E-1,-2.824663E-1,-1.3875575E-1,7.3924707E-3,2.354509E-1,-1.1566846E-1,1.2425554E-1,-1.892665E-2,-1.4407268E-1,6.0315672E-2,3.2029983E-1,-5.6330897E-2,1.3321182E-3,2.903662E-2,1.5938818E-1,2.0004658E-2],"categories":[],"categories_nodes":[],"categories_segments":[],"categories_sizes":[],"default_left":[0,0,0,0,0,0,0,0,0,0,0,0,0,0,0,0,0,0,0,0,0,0,0,0,0],"id":16,"left_children":[1,3,5,7,9,11,-1,13,-1,15,17,-1,-1,19,-1,-1,-1,-1,21,23,-1,-1,-1,-1,-1],"loss_changes":[4.530694E-1,5.981192E-1,1.4887947E-1,3.9990318E-1,6.1146045E-1,2.0396632E-1,0E0,7.701146E-1,0E0,2.0142443E-1,4.937157E-1,0E0,0E0,4.1450632E-1,0E0,0E0,0E0,0E0,6.4922953E-3,4.2422402E-1,0E0,0E0,0E0,0E0,0E0],"parents":[2147483647,0,0,1,1,2,2,3,3,4,4,5,5,7,7,9,9,10,10,13,13,18,18,19,19],"right_children":[2,4,6,8,10,12,-1,14,-1,16,18,-1,-1,20,-1,-1,-1,-1,22,24,-1,-1,-1,-1,-1],"split_conditions":[5.267E-1,2.1129384E2,7.271E-1,2.0927727E2,3E1,4E1,1.4373761E-2,2.0164389E2,1.7731333E-1,4.06E-2,2.2304636E2,-1.3875575E-1,7.3924707E-3,8.9779144E1,-1.1566846E-1,1.2425554E-1,-1.892665E-2,-1.4407268E-1,2.2891856E2,3.6E1,-5.6330897E-2,1.3321182E-3,2.903662E-2,1.5938818E-1,2.0004658E-2],"split_indices":[0,3,0,3,2,2,0,3,0,0,3,0,0,4,0,0,0,0,3,2,0,0,0,0,0],"split_type":[0,0,0,0,0,0,0,0,0,0,0,0,0,0,0,0,0,0,0,0,0,0,0,0,0],"sum_hessian":[2.4262547E1,2.001555E1,4.246996E0,1.180483E1,8.210721E0,3.21398E0,1.0330161E0,1.0423302E1,1.3815285E0,2.3554032E0,5.8553176E0,2.1675856E0,1.0463943E0,8.868158E0,1.555143E0,1.2921357E0,1.0632675E0,3.458717E0,2.3966005E0,7.5897245E0,1.2784338E0,1.3895736E0,1.0070269E0,3.545351E0,4.0443735E0],"tree_param":{"num_deleted":"0","num_feature":"6","num_nodes":"25","size_leaf_vector":"1"}},{"base_weights":[-1.7903484E-2,-1.12978786E-1,2.4909955E-2,-1.0623296E-1,6.6870086E-2,-7.469139E-2,1.8413684E-1,1.1483349E-1,-2.1807766E-1,-1.5159166E-1,3.8541293E-1,-1.3317624E-1,-6.4462185E-2,4.5843676E-2,-2.831498E-1,1.7534232E-1,-3.721808E-2,9.712062E-2,-9.172004E-2,1.7084032E-2,-1.265639E-1,-1.0262814E-1,7.07421E-2],"categories":[],"categories_nodes":[],"categories_segments":[],"categories_sizes":[],"default_left":[0,0,0,0,0,0,0,0,0,0,0,0,0,0,0,0,0,0,0,0,0,0,0],"id":17,"left_children":[1,-1,3,-1,5,7,9,-1,11,13,15,-1,17,-1,19,-1,21,-1,-1,-1,-1,-1,-1],"loss_changes":[3.85014E-1,0E0,3.861249E-1,0E0,3.6833256E-1,7.6492584E-1,8.673436E-1,0E0,2.6789403E-1,2.516935E-1,6.751286E-1,0E0,6.849782E-1,0E0,2.1201959E-1,0E0,3.659146E-1,0E0,0E0,0E0,0E0,0E0,0E0],"parents":[2147483647,0,0,2,2,4,4,5,5,6,6,8,8,9,9,10,10,12,12,14,14,16,16],"right_children":[2,-1,4,-1,6,8,10,-1,12,14,16,-1,18,-1,20,-1,22,-1,-1,-1,-1,-1,-1],"split_conditions":[-1.511E-1,-1.12978786E-1,4.4376343E1,-1.0623296E-1,2.0164389E2,2.8E1,3.3E1,1.1483349E-1,3.6E1,2.6E1,6.441086E1,-1.3317624E-1,3.7E1,4.5843676E-2,5.6472866E1,1.7534232E-1,7.185113E1,9.712062E-2,-9.172004E-2,1.7084032E-2,-1.265639E-1,-1.0262814E-1,7.07421E-2],"split_indices":[0,0,4,0,3,2,2,0,2,2,4,0,2,0,4,0,4,0,0,0,0,0,0],"split_type":[0,0,0,0,0,0,0,0,0,0,0,0,0,0,0,0,0,0,0,0,0,0,0],"sum_hessian":[2.3460278E1,1.6702933E0,2.1789984E1,1.430379E0,2.0359606E1,9.388776E0,1.097083E1,1.842088E0,7.5466876E0,4.204527E0,6.766303E0,2.2900596E0,5.256628E0,1.2200276E0,2.9844992E0,4.339454E0,2.4268486E0,1.8838251E0,3.372803E0,1.0354947E0,1.9490044E0,1.0270306E0,1.3998181E0],"tree_param":{"num_deleted":"0","num_feature":"6","num_nodes":"23","size_leaf_vector":"1"}},{"base_weights":[6.739125E-3,-7.5742744E-2,3.1786615E-1,-1.2663822E-1,1.4448553E-2,1.4106554E-1,-1.2837845E-2,-1.0592219E-1,7.1474954E-2,1.7425501E-1,-3.132014E-2,-1.3207E-1,8.912197E-2,-9.847035E-3,1.2034936E-1],"categories":[],"categories_nodes":[],"categories_segments":[],"categories_sizes":[],"default_left":[0,0,0,0,0,0,0,0,0,0,0,0,0,0,0],"id":18,"left_children":[1,3,5,-1,7,-1,-1,-1,9,-1,11,-1,13,-1,-1],"loss_changes":[5.962308E-1,5.8189934E-1,2.874137E-1,0E0,3.5198447E-1,0E0,0E0,0E0,7.684138E-1,0E0,6.731222E-1,0E0,4.231392E-1,0E0,0E0],"parents":[2147483647,0,0,1,1,2,2,4,4,8,8,10,10,12,12],"right_children":[2,4,6,-1,8,-1,-1,-1,10,-1,12,-1,14,-1,-1],"split_conditions":[2.2367986E2,3.1E1,2.3602107E2,-1.2663822E-1,4.698321E1,1.4106554E-1,-1.2837845E-2,-1.0592219E-1,5.0609707E1,1.7425501E-1,5.6113884E1,-1.3207E-1,5.267E-1,-9.847035E-3,1.2034936E-1],"split_indices":[3,2,3,0,4,0,0,0,4,0,4,0,0,0,0],"split_type":[0,0,0,0,0,0,0,0,0,0,0,0,0,0,0],"sum_hessian":[2.1295506E1,1.7430986E1,3.8645182E0,2.8407137E0,1.4590273E1,2.5032856E0,1.3612325E0,1.262477E0,1.3327796E1,1.4570738E0,1.1870722E1,2.0967836E0,9.773938E0,7.670959E0,2.1029794E0],"tree_param":{"num_deleted":"0","num_feature":"6","num_nodes":"15","size_leaf_vector":"1"}},{"base_weights":[1.29122315E-2,5.005561E-2,-1.1546303E-1,-3.10222E-2,1.6590889E-1,1.6241279E-1,-1.5234299E-1,-5.814315E-2,1.7787763E-1,6.9038264E-2,-3.0888236E-1,7.0296526E-2,-9.8480426E-2,-1.131841E-1,3.171827E-1,-7.2404794E-2,-1.3981025E-1,1.1364759E-1,-5.3687688E-2,1.7047149E-1,-4.385884E-2,-8.374448E-2,7.5132445E-2],"categories":[],"categories_nodes":[],"categories_segments":[],"categories_sizes":[],"default_left":[0,0,0,0,0,0,0,0,0,0,0,0,0,0,0,0,0,0,0,0,0,0,0],"id":19,"left_children":[1,3,-1,5,-1,7,9,11,-1,13,15,17,-1,-1,19,21,-1,-1,-1,-1,-1,-1,-1],"loss_changes":[3.7066975E-1,9.403004E-1,0E0,5.044588E-1,0E0,8.285674E-1,4.7455776E-1,2.465348E-1,0E0,8.101565E-1,2.577585E-1,4.6682402E-1,0E0,0E0,6.124077E-1,3.579556E-1,0E0,0E0,0E0,0E0,0E0,0E0,0E0],"parents":[2147483647,0,0,1,1,3,3,5,5,6,6,7,7,9,9,10,10,11,11,14,14,15,15],"right_children":[2,4,-1,6,-1,8,10,12,-1,14,16,18,-1,-1,20,22,-1,-1,-1,-1,-1,-1,-1],"split_conditions":[9.349636E1,7.956339E1,-1.1546303E-1,5.4928303E1,1.6590889E-1,5.2214684E1,4.06E-2,2.2318066E2,1.7787763E-1,6.1028908E1,3.3E1,4.698321E1,-9.8480426E-2,-1.131841E-1,7.21765E1,2.8E1,-1.3981025E-1,1.1364759E-1,-5.3687688E-2,1.7047149E-1,-4.385884E-2,-8.374448E-2,7.5132445E-2],"split_indices":[4,4,0,4,0,4,0,3,0,4,2,4,0,0,4,2,0,0,0,0,0,0,0],"split_type":[0,0,0,0,0,0,0,0,0,0,0,0,0,0,0,0,0,0,0,0,0,0,0],"sum_hessian":[2.278336E1,2.1637163E1,1.1461957E0,1.9441566E1,2.1955965E0,7.363087E0,1.207848E1,5.4407043E0,1.9223831E0,5.2345877E0,6.8438926E0,4.188777E0,1.2519273E0,1.6844637E0,3.5501237E0,3.3155217E0,3.5283709E0,1.6395333E0,2.5492437E0,2.1558208E0,1.3943028E0,2.1037073E0,1.2118143E0],"tree_param":{"num_deleted":"0","num_feature":"6","num_nodes":"23","size_leaf_vector":"1"}},{"base_weights":[-2.0064902E-2,-1.0493482E-1,1.9199261E-2,-9.8273754E-2,5.704349E-2,1.0517554E-1,-2.0362048E-1,-7.930107E-2,2.0255506E-1,-1.0693712E-1,1.3147816E-2,-3.1384674E-1,2.4261573E-1,4.1910872E-1,-9.559173E-2,-5.487959E-3,-1.251378E-1,1.2999552E-1,-2.344065E-2,-2.197195E-3,1.5169924E-1,5.7767995E-2,-8.709644E-2],"categories":[],"categories_nodes":[],"categories_segments":[],"categories_sizes":[],"default_left":[0,0,0,0,0,0,0,0,0,0,0,0,0,0,0,0,0,0,0,0,0,0,0],"id":20,"left_children":[1,-1,3,-1,5,7,9,11,13,-1,-1,15,17,19,21,-1,-1,-1,-1,-1,-1,-1,-1],"loss_changes":[3.0180177E-1,0E0,2.9842708E-1,0E0,2.7322337E-1,3.322572E-1,1.4681403E-1,5.8955693E-1,8.020264E-1,0E0,0E0,1.2575307E-1,2.4366882E-1,2.6288223E-1,3.802085E-1,0E0,0E0,0E0,0E0,0E0,0E0,0E0,0E0],"parents":[2147483647,0,0,2,2,4,4,5,5,6,6,7,7,8,8,11,11,12,12,13,13,14,14],"right_children":[2,-1,4,-1,6,8,10,12,14,-1,-1,16,18,20,22,-1,-1,-1,-1,-1,-1,-1,-1],"split_conditions":[-1.511E-1,-1.0493482E-1,4.4376343E1,-9.8273754E-2,7.838104E1,3.3E1,8.813694E1,4.364E-1,3.612E-1,-1.0693712E-1,1.3147816E-2,5.6113884E1,2.1135594E2,1.885038E2,3.7E1,-5.487959E-3,-1.251378E-1,1.2999552E-1,-2.344065E-2,-2.197195E-3,1.5169924E-1,5.7767995E-2,-8.709644E-2],"split_indices":[0,0,4,0,4,2,4,0,0,0,0,4,3,3,2,0,0,0,0,0,0,0,0],"split_type":[0,0,0,0,0,0,0,0,0,0,0,0,0,0,0,0,0,0,0,0,0,0,0],"sum_hessian":[2.1793455E1,1.4775335E0,2.0315922E1,1.2456505E0,1.9070272E1,1.6601318E1,2.4689531E0,5.799792E0,1.0801527E1,1.2539209E0,1.2150322E0,3.3697162E0,2.4300756E0,6.021908E0,4.7796187E0,1.1774215E0,2.1922948E0,1.3038958E0,1.1261799E0,1.1705143E0,4.8513937E0,1.9319515E0,2.8476672E0],"tree_param":{"num_deleted":"0","num_feature":"6","num_nodes":"23","size_leaf_vector":"1"}},{"base_weights":[9.0233525E-3,-6.428318E-2,2.883392E-1,-1.2064906E-1,2.0685524E-2,1.2834167E-1,-8.008852E-3,9.451284E-2,-4.463749E-2,1.1939225E-1,-1.6578437E-1,9.816766E-2,-5.674274E-3,-3.485607E-1,8.7713E-2,-8.5195355E-2,1.2498868E-1,-1.2348961E-1,-3.8903493E-2,1.20623395E-1,-5.749307E-2],"categories":[],"categories_nodes":[],"categories_segments":[],"categories_sizes":[],"default_left":[0,0,0,0,0,0,0,0,0,0,0,0,0,0,0,0,0,0,0,0,0],"id":21,"left_children":[1,3,5,-1,7,-1,-1,-1,9,11,13,-1,15,17,19,-1,-1,-1,-1,-1,-1],"loss_changes":[4.4401008E-1,5.043395E-1,2.0923084E-1,0E0,2.9780865E-1,0E0,0E0,0E0,2.7718264E-1,1.5999182E-1,3.9516073E-1,0E0,6.802472E-1,1.25156045E-2,4.3672842E-1,0E0,0E0,0E0,0E0,0E0,0E0],"parents":[2147483647,0,0,1,1,2,2,4,4,8,8,9,9,10,10,12,12,13,13,14,14],"right_children":[2,4,6,-1,8,-1,-1,-1,10,12,14,-1,16,18,20,-1,-1,-1,-1,-1,-1],"split_conditions":[2.2367986E2,3.1E1,2.3602107E2,-1.2064906E-1,3.3E1,1.2834167E-1,-8.008852E-3,9.451284E-2,1.7999292E2,5.2846844E1,6.7063545E1,9.816766E-2,5.267E-1,2.1291731E2,7.1921036E1,-8.5195355E-2,1.2498868E-1,-1.2348961E-1,-3.8903493E-2,1.20623395E-1,-5.749307E-2],"split_indices":[3,2,3,0,2,0,0,0,3,4,4,0,0,3,4,0,0,0,0,0,0],"split_type":[0,0,0,0,0,0,0,0,0,0,0,0,0,0,0,0,0,0,0,0,0],"sum_hessian":[1.977952E1,1.6277374E1,3.5021467E0,2.5206923E0,1.3756681E1,2.1793756E0,1.3227713E0,1.8041247E0,1.1952557E1,5.0837603E0,6.868796E0,1.3026422E0,3.7811182E0,3.7732244E0,3.0955718E0,2.4765396E0,1.3045785E0,2.2455554E0,1.5276687E0,1.2498231E0,1.8457488E0],"tree_param":{"num_deleted":"0","num_feature":"6","num_nodes":"21","size_leaf_vector":"1"}},{"base_weights":[1.2805214E-2,4.9475405E-2,-1.0916304E-1,-2.6678123E-2,1.515549E-1,1.5032436E-1,-1.4063902E-1,-5.0008293E-2,1.5785305E-1,1.2947399E-2,-3.6073008E-1,6.265667E-2,-8.914204E-2,2.7145442E-1,-1.8752293E-1,-1.3581523E-1,-1.2730073E-2,1.0063347E-1,-4.8185375E-2,-1.7052758E-2,1.273329E-1,-1.1606272E-1,2.0031502E-2],"categories":[],"categories_nodes":[],"categories_segments":[],"categories_sizes":[],"default_left":[0,0,0,0,0,0,0,0,0,0,0,0,0,0,0,0,0,0,0,0,0,0,0],"id":22,"left_children":[1,3,-1,5,-1,7,9,11,-1,13,15,17,-1,19,21,-1,-1,-1,-1,-1,-1,-1,-1],"loss_changes":[3.2310346E-1,7.425585E-1,0E0,4.0339816E-1,0E0,6.2157226E-1,4.118218E-1,1.8762961E-1,0E0,4.685762E-1,1.2675345E-1,3.5812125E-1,0E0,2.2145325E-1,2.8593433E-1,0E0,0E0,0E0,0E0,0E0,0E0,0E0,0E0],"parents":[2147483647,0,0,1,1,3,3,5,5,6,6,7,7,9,9,10,10,11,11,13,13,14,14],"right_children":[2,4,-1,6,-1,8,10,12,-1,14,16,18,-1,20,22,-1,-1,-1,-1,-1,-1,-1,-1],"split_conditions":[9.349636E1,7.956339E1,-1.0916304E-1,5.4928303E1,1.515549E-1,5.2214684E1,3.772E-1,2.2318066E2,1.5785305E-1,3.3E1,6.9E-1,4.698321E1,-8.914204E-2,5.941678E1,4.1E1,-1.3581523E-1,-1.2730073E-2,1.0063347E-1,-4.8185375E-2,-1.7052758E-2,1.273329E-1,-1.1606272E-1,2.0031502E-2],"split_indices":[4,4,0,4,0,4,0,3,0,2,0,4,0,4,2,0,0,0,0,0,0,0,0],"split_type":[0,0,0,0,0,0,0,0,0,0,0,0,0,0,0,0,0,0,0,0,0,0,0],"sum_hessian":[2.1087923E1,2.0008718E1,1.0792046E0,1.7950464E1,2.0582538E0,6.9056373E0,1.1044827E1,5.07015E0,1.8354874E0,7.0595946E0,3.985233E0,3.995229E0,1.0749209E0,2.928805E0,4.1307898E0,2.7640982E0,1.2211348E0,1.5721048E0,2.4231243E0,1.1307627E0,1.7980425E0,2.0232816E0,2.1075082E0],"tree_param":{"num_deleted":"0","num_feature":"6","num_nodes":"23","size_leaf_vector":"1"}},{"base_weights":[-2.215974E-2,2.3445332E-1,-6.640028E-2,2.6693477E-3,1.073483E-1,-2.6471636E-1,1.8690394E-2,-8.511504E-3,-3.2222039E-1,-1.9908407E-1,1.8019585E-1,-1.272631E-1,2.8832676E-3,-2.9335865E-1,-9.570243E-3,3.0804342E-1,-4.7942035E-2,-1.5712456E-3,-1.2297117E-1,-9.220895E-2,8.288928E-2,1.324245E-1,5.5009745E-2,-4.5563903E-2,7.313707E-2],"categories":[],"categories_nodes":[],"categories_segments":[],"categories_sizes":[],"default_left":[0,0,0,0,0,0,0,0,0,0,0,0,0,0,0,0,0,0,0,0,0,0,0,0,0],"id":23,"left_children":[1,3,5,-1,-1,7,9,-1,11,13,15,-1,-1,17,19,21,-1,-1,-1,-1,-1,-1,23,-1,-1],"loss_changes":[2.565295E-1,8.981238E-2,3.2359895E-1,0E0,0E0,6.880775E-2,5.334745E-1,0E0,1.5693232E-1,1.1331475E-1,4.2515266E-1,0E0,0E0,1.4246652E-1,3.5672998E-1,1.9934672E-1,0E0,0E0,0E0,0E0,0E0,0E0,1.7097464E-1,0E0,0E0],"parents":[2147483647,0,0,1,1,2,2,5,5,6,6,8,8,9,9,10,10,13,13,14,14,15,15,22,22],"right_children":[2,4,6,-1,-1,8,10,-1,12,14,16,-1,-1,18,20,22,-1,-1,-1,-1,-1,-1,24,-1,-1],"split_conditions":[2.6E1,4.06E-2,3.3E1,2.6693477E-3,1.073483E-1,5.4945793E1,1.991602E2,-8.511504E-3,4.364E-1,3.818E-1,2.2225502E2,-1.272631E-1,2.8832676E-3,1.3766165E2,1.3088391E2,6.441086E1,-4.7942035E-2,-1.5712456E-3,-1.2297117E-1,-9.220895E-2,8.288928E-2,1.324245E-1,4.06E-2,-4.5563903E-2,7.313707E-2],"split_indices":[2,0,2,0,0,4,3,0,0,0,3,0,0,3,3,4,0,0,0,0,0,0,0,0,0],"split_type":[0,0,0,0,0,0,0,0,0,0,0,0,0,0,0,0,0,0,0,0,0,0,0,0,0],"sum_hessian":[2.0225061E1,2.3418527E0,1.788321E1,1.20711E0,1.1347427E0,4.7354856E0,1.3147723E1,1.2189443E0,3.516541E0,5.4995017E0,7.648222E0,2.4768715E0,1.0396696E0,3.3066423E0,2.1928594E0,5.6265335E0,2.0216882E0,1.2532696E0,2.0533729E0,1.0371996E0,1.1556598E0,3.1969573E0,2.4295762E0,1.2524515E0,1.1771246E0],"tree_param":{"num_deleted":"0","num_feature":"6","num_nodes":"25","size_leaf_vector":"1"}},{"base_weights":[1.1614121E-2,-5.4523267E-2,2.5965175E-1,-1.14618674E-1,2.5442662E-2,1.1923427E-1,-8.315667E-3,-8.966924E-2,7.4048124E-2,1.4800814E-1,-2.1009887E-2,-1.1500149E-1,8.313233E-2,6.865303E-2,-2.8356565E-2],"categories":[],"categories_nodes":[],"categories_segments":[],"categories_sizes":[],"default_left":[0,0,0,0,0,0,0,0,0,0,0,0,0,0,0],"id":24,"left_children":[1,3,5,-1,7,-1,-1,-1,9,-1,11,-1,13,-1,-1],"loss_changes":[3.3111975E-1,4.309045E-1,1.7895243E-1,0E0,2.4067353E-1,0E0,0E0,0E0,5.2284896E-1,0E0,4.6355844E-1,0E0,2.7293628E-1,0E0,0E0],"parents":[2147483647,0,0,1,1,2,2,4,4,8,8,10,10,12,12],"right_children":[2,4,6,-1,8,-1,-1,-1,10,-1,12,-1,14,-1,-1],"split_conditions":[2.2367986E2,3.1E1,2.3602107E2,-1.14618674E-1,4.698321E1,1.1923427E-1,-8.315667E-3,-8.966924E-2,5.0609707E1,1.4800814E-1,5.6113884E1,-1.1500149E-1,4E1,6.865303E-2,-2.8356565E-2],"split_indices":[3,2,3,0,4,0,0,0,4,0,4,0,2,0,0],"split_type":[0,0,0,0,0,0,0,0,0,0,0,0,0,0,0],"sum_hessian":[1.8321617E1,1.5080654E1,3.2409627E0,2.2179914E0,1.2862663E1,1.9316685E0,1.3092941E0,1.0052503E0,1.1857412E1,1.416955E0,1.0440457E1,1.7323626E0,8.708095E0,4.6258535E0,4.0822415E0],"tree_param":{"num_deleted":"0","num_feature":"6","num_nodes":"15","size_leaf_vector":"1"}},{"base_weights":[1.0557282E-2,4.721784E-2,-1.0444515E-1,-2.3575027E-2,1.3863932E-1,6.544382E-2,-2.3844866E-1,2.8061357E-1,-7.834192E-2,-1.21043235E-1,-2.4341635E-2,5.688331E-2,1.4566153E-1,-1.1003605E-1,3.165825E-2,7.12768E-2,-9.529675E-2,6.023373E-2,-3.5956547E-2,5.284661E-2,-6.3516796E-2],"categories":[],"categories_nodes":[],"categories_segments":[],"categories_sizes":[],"default_left":[0,0,0,0,0,0,0,0,0,0,0,0,0,0,0,0,0,0,0,0,0],"id":25,"left_children":[1,3,-1,5,-1,7,9,11,13,-1,15,17,-1,-1,19,-1,-1,-1,-1,-1,-1],"loss_changes":[2.8701758E-1,5.850864E-1,0E0,3.5322207E-1,0E0,4.3237704E-1,1.8047673E-1,2.2599876E-1,2.8870597E-1,0E0,3.3733833E-1,1.2012643E-1,0E0,0E0,2.9200637E-1,0E0,0E0,0E0,0E0,0E0,0E0],"parents":[2147483647,0,0,1,1,3,3,5,5,6,6,7,7,8,8,10,10,11,11,14,14],"right_children":[2,4,-1,6,-1,8,10,12,14,-1,16,18,-1,-1,20,-1,-1,-1,-1,-1,-1],"split_conditions":[9.349636E1,7.956339E1,-1.0444515E-1,4.2E1,1.3863932E-1,5.4928303E1,4.7E1,5.2214684E1,1E0,-1.21043235E-1,4.06E-2,5.0327885E1,1.4566153E-1,-1.1003605E-1,3.772E-1,7.12768E-2,-9.529675E-2,6.023373E-2,-3.5956547E-2,5.284661E-2,-6.3516796E-2],"split_indices":[4,4,0,2,0,4,2,4,5,0,0,4,0,0,0,0,0,0,0,0,0],"split_type":[0,0,0,0,0,0,0,0,0,0,0,0,0,0,0,0,0,0,0,0,0],"sum_hessian":[1.9575659E1,1.8548351E1,1.0273068E0,1.6650593E1,1.8977585E0,1.2264875E1,4.3857183E0,4.5317216E0,7.733154E0,1.9772407E0,2.4084775E0,2.7772224E0,1.7544992E0,1.4904476E0,6.242706E0,1.3726647E0,1.0358127E0,1.4558687E0,1.3213537E0,4.090412E0,2.152294E0],"tree_param":{"num_deleted":"0","num_feature":"6","num_nodes":"21","size_leaf_vector":"1"}},{"base_weights":[-2.2354577E-2,-9.839439E-2,1.713776E-2,1.2048908E-1,-1.0090419E-1,-9.446647E-2,2.2131582E-1,6.1272107E-2,-1.2434705E-1,1.2993674E-2,-4.8206728E-2,3.220118E-1,-2.0515885E-2,2.6361457E-1,-2.3739548E-1,-6.6708145E-3,1.2859297E-1,-2.3698483E-2,1.213992E-1,-9.4198875E-2,-1.2958637E-2],"categories":[],"categories_nodes":[],"categories_segments":[],"categories_sizes":[],"default_left":[0,0,0,0,0,0,0,0,0,0,0,0,0,0,0,0,0,0,0,0,0],"id":26,"left_children":[1,-1,3,5,7,9,11,13,-1,-1,-1,15,-1,17,19,-1,-1,-1,-1,-1,-1],"loss_changes":[2.4406847E-1,0E0,2.3718587E-1,2.4393255E-1,4.9097914E-1,4.3332685E-2,2.3508883E-1,4.7989622E-1,0E0,0E0,0E0,2.1491599E-1,0E0,2.5379494E-1,3.575097E-2,0E0,0E0,0E0,0E0,0E0,0E0],"parents":[2147483647,0,0,2,2,3,3,4,4,5,5,6,6,7,7,11,11,13,13,14,14],"right_children":[2,-1,4,6,8,10,12,14,-1,-1,-1,16,-1,18,20,-1,-1,-1,-1,-1,-1],"split_conditions":[-1.511E-1,-9.839439E-2,3.612E-1,3.3E1,2.1518628E2,1.9776646E2,4.6E1,3.7E1,-1.2434705E-1,1.2993674E-2,-4.8206728E-2,1.885038E2,-2.0515885E-2,5.629844E1,5.267E-1,-6.6708145E-3,1.2859297E-1,-2.3698483E-2,1.213992E-1,-9.4198875E-2,-1.2958637E-2],"split_indices":[0,0,0,2,3,3,2,2,0,0,0,3,0,4,0,0,0,0,0,0,0],"split_type":[0,0,0,0,0,0,0,0,0,0,0,0,0,0,0,0,0,0,0,0,0],"sum_hessian":[1.8755539E1,1.310305E0,1.7445234E1,9.290357E0,8.154879E0,2.986477E0,6.3038793E0,5.905406E0,2.2494724E0,1.0817708E0,1.904706E0,4.595149E0,1.7087306E0,3.59036E0,2.3150458E0,1.2739167E0,3.321232E0,1.1753585E0,2.4150014E0,1.217817E0,1.097229E0],"tree_param":{"num_deleted":"0","num_feature":"6","num_nodes":"21","size_leaf_vector":"1"}},{"base_weights":[1.2391248E-2,-4.995749E-2,2.4459347E-1,-1.0917202E-1,2.4504306E-2,1.2511665E-1,2.5313352E-3,7.590936E-2,-3.1269226E-2,6.9007136E-2,-1.0399765E-1,5.063914E-2,-1.8380597E-1,-8.443682E-2,4.969708E-2],"categories":[],"categories_nodes":[],"categories_segments":[],"categories_sizes":[],"default_left":[0,0,0,0,0,0,0,0,0,0,0,0,0,0,0],"id":27,"left_children":[1,3,5,-1,7,-1,-1,-1,9,-1,11,-1,13,-1,-1],"loss_changes":[2.750496E-1,3.6289445E-1,1.5989806E-1,0E0,1.758505E-1,0E0,0E0,0E0,2.4210396E-1,0E0,2.4155384E-1,0E0,3.1826034E-1,0E0,0E0],"parents":[2147483647,0,0,1,1,2,2,4,4,8,8,10,10,12,12],"right_children":[2,4,6,-1,8,-1,-1,-1,10,-1,12,-1,14,-1,-1],"split_conditions":[2.2367986E2,3.1E1,3.3E1,-1.0917202E-1,3.3E1,1.2511665E-1,2.5313352E-3,7.590936E-2,0E0,6.9007136E-2,1.3049864E2,5.063914E-2,1E0,-8.443682E-2,4.969708E-2],"split_indices":[3,2,2,0,2,0,0,0,0,0,3,0,1,0,0],"split_type":[0,0,0,0,0,0,0,0,0,0,0,0,0,0,0],"sum_hessian":[1.7154379E1,1.4141966E1,3.0124133E0,1.9659362E0,1.217603E1,1.2982767E0,1.7141366E0,1.6948359E0,1.0481194E1,1.8112173E0,8.669976E0,1.7099892E0,6.9599876E0,5.592019E0,1.3679684E0],"tree_param":{"num_deleted":"0","num_feature":"6","num_nodes":"15","size_leaf_vector":"1"}},{"base_weights":[8.083952E-3,5.55105E-2,-1.8015863E-1,1.5148559E-1,-1.0145492E-1,-9.7710855E-2,-1.887113E-2,6.0771786E-2,1.3538618E-1,4.806858E-2,-2.1252313E-1,-1.1765725E-2,3.285779E-3,1.5067051E-1,-9.347311E-2,-1.20742716E-1,2.5261607E-2,2.2848818E-1,-5.6205474E-2,1.2092256E-1,8.657113E-3],"categories":[],"categories_nodes":[],"categories_segments":[],"categories_sizes":[],"default_left":[0,0,0,0,0,0,0,0,0,0,0,0,0,0,0,0,0,0,0,0,0],"id":28,"left_children":[1,3,5,7,9,-1,11,13,-1,-1,15,-1,-1,17,-1,-1,-1,19,-1,-1,-1],"loss_changes":[1.825398E-1,2.5944042E-1,9.0681195E-2,2.5691372E-1,2.3013285E-1,0E0,2.2610808E-3,3.5430422E-1,0E0,0E0,3.2506874E-1,0E0,0E0,2.5509208E-1,0E0,0E0,0E0,2.3271206E-1,0E0,0E0,0E0],"parents":[2147483647,0,0,1,1,2,2,3,3,4,4,6,6,7,7,10,10,13,13,17,17],"right_children":[2,4,6,8,10,-1,12,14,-1,-1,16,-1,-1,18,-1,-1,-1,20,-1,-1,-1],"split_conditions":[5.267E-1,2.1129384E2,6.249E-1,2.0927727E2,3E1,-9.7710855E-2,1.6774553E2,2.0164389E2,1.3538618E-1,4.806858E-2,2.2304636E2,-1.1765725E-2,3.285779E-3,8.9779144E1,-9.347311E-2,-1.20742716E-1,2.5261607E-2,3.6E1,-5.6205474E-2,1.2092256E-1,8.657113E-3],"split_indices":[0,3,0,3,2,0,3,3,0,0,3,0,0,4,0,0,0,2,0,0,0],"split_type":[0,0,0,0,0,0,0,0,0,0,0,0,0,0,0,0,0,0,0,0,0],"sum_hessian":[1.8326277E1,1.5201471E1,3.1248043E0,9.45513E0,5.746342E0,1.1067191E0,2.018085E0,8.182101E0,1.2730283E0,1.5803429E0,4.1659994E0,1.0123532E0,1.0057318E0,7.0703974E0,1.1117035E0,2.322719E0,1.8432803E0,6.0106916E0,1.059706E0,2.6628244E0,3.3478673E0],"tree_param":{"num_deleted":"0","num_feature":"6","num_nodes":"21","size_leaf_vector":"1"}},{"base_weights":[-2.0504307E-2,-9.2067584E-2,1.6365258E-2,1.1663654E-1,-1.00442916E-1,-8.058213E-2,2.0782682E-1,5.040111E-2,-1.1833263E-1,1.199967E-2,-4.2123195E-2,-2.0985186E-2,2.9343128E-1,2.3762591E-1,-2.2432205E-1,1.1890162E-1,-7.896567E-4,-2.209425E-2,1.1061721E-1,-9.040369E-2,-1.1702013E-2],"categories":[],"categories_nodes":[],"categories_segments":[],"categories_sizes":[],"default_left":[0,0,0,0,0,0,0,0,0,0,0,0,0,0,0,0,0,0,0,0,0],"id":29,"left_children":[1,-1,3,5,7,9,11,13,-1,-1,-1,-1,15,17,19,-1,-1,-1,-1,-1,-1],"loss_changes":[2.013208E-1,0E0,2.1574293E-1,1.9364247E-1,4.0054658E-1,3.325086E-2,1.871078E-1,3.9070043E-1,0E0,0E0,0E0,0E0,1.7006317E-1,2.0616378E-1,3.353563E-2,0E0,0E0,0E0,0E0,0E0,0E0],"parents":[2147483647,0,0,2,2,3,3,4,4,5,5,6,6,7,7,12,12,13,13,14,14],"right_children":[2,-1,4,6,8,10,12,14,-1,-1,-1,-1,16,18,20,-1,-1,-1,-1,-1,-1],"split_conditions":[-1.511E-1,-9.2067584E-2,3.612E-1,3.3E1,2.1518628E2,1.9776646E2,1.885038E2,3.7E1,-1.1833263E-1,1.199967E-2,-4.2123195E-2,-2.0985186E-2,4.6E1,5.629844E1,4.5E1,1.1890162E-1,-7.896567E-4,-2.209425E-2,1.1061721E-1,-9.040369E-2,-1.1702013E-2],"split_indices":[0,0,0,2,3,3,3,2,0,0,0,0,2,4,2,0,0,0,0,0,0],"split_type":[0,0,0,0,0,0,0,0,0,0,0,0,0,0,0,0,0,0,0,0,0],"sum_hessian":[1.7590649E1,1.1710093E0,1.641964E1,8.836026E0,7.5836134E0,2.8305914E0,6.0054345E0,5.5596538E0,2.0239596E0,1.0486126E0,1.781979E0,1.457821E0,4.5476136E0,3.3866649E0,2.172989E0,3.123303E0,1.4243107E0,1.1335177E0,2.2531471E0,1.0927008E0,1.0802882E0],"tree_param":{"num_deleted":"0","num_feature":"6","num_nodes":"21","size_leaf_vector":"1"}},{"base_weights":[1.8093077E-2,-3.9585162E-2,2.261006E-1,-1.0356554E-1,2.9780984E-2,1.0888724E-1,-1.0953635E-2,1.5125906E-1,-6.370485E-2,3.5784375E-2,1.0187319E-1,-2.5884438E-1,6.252536E-2,8.529996E-2,-1.2962915E-1,-9.500999E-2,-1.9952813E-2,2.3093444E-1,-4.4850353E-2,4.4407547E-3,-5.866604E-2,1.0309981E-2,8.986477E-2],"categories":[],"categories_nodes":[],"categories_segments":[],"categories_sizes":[],"default_left":[0,0,0,0,0,0,0,0,0,0,0,0,0,0,0,0,0,0,0,0,0,0,0],"id":30,"left_children":[1,3,5,-1,7,-1,-1,9,11,13,-1,15,17,-1,19,-1,-1,21,-1,-1,-1,-1,-1],"loss_changes":[2.1575488E-1,3.1442967E-1,1.5309882E-1,0E0,1.528763E-1,0E0,0E0,1.1357659E-1,2.0909196E-1,2.3016426E-1,0E0,1.5331134E-2,2.3308466E-1,0E0,3.6314208E-2,0E0,0E0,3.6805555E-2,0E0,0E0,0E0,0E0,0E0],"parents":[2147483647,0,0,1,1,2,2,4,4,7,7,8,8,9,9,11,11,12,12,14,14,17,17],"right_children":[2,4,6,-1,8,-1,-1,10,12,14,-1,16,18,-1,20,-1,-1,22,-1,-1,-1,-1,-1],"split_conditions":[2.2367986E2,3.1E1,2.3602107E2,-1.0356554E-1,1.7999292E2,1.0888724E-1,-1.0953635E-2,6.369E-1,2.0347914E2,5.2846844E1,1.0187319E-1,6.441086E1,4E1,8.529996E-2,4.06E-2,-9.500999E-2,-1.9952813E-2,5.747105E1,-4.4850353E-2,4.4407547E-3,-5.866604E-2,1.0309981E-2,8.986477E-2],"split_indices":[3,2,3,0,3,0,0,0,3,4,0,4,2,0,0,0,0,4,0,0,0,0,0],"split_type":[0,0,0,0,0,0,0,0,0,0,0,0,0,0,0,0,0,0,0,0,0,0,0],"sum_hessian":[1.6237303E1,1.33462305E1,2.8910723E0,1.7331342E0,1.1613096E1,1.6494061E0,1.2416661E0,4.781671E0,6.831425E0,3.701793E0,1.0798783E0,2.2706497E0,4.5607758E0,1.1919125E0,2.5098803E0,1.2484902E0,1.0221593E0,2.4921367E0,2.068639E0,1.0296066E0,1.4802737E0,1.0331703E0,1.4589664E0],"tree_param":{"num_deleted":"0","num_feature":"6","num_nodes":"23","size_leaf_vector":"1"}},{"base_weights":[6.0314746E-3,5.185588E-2,-1.733283E-1,1.40399E-1,-9.53779E-2,-9.119179E-2,-7.625573E-3,5.3678706E-2,1.2702852E-1,4.3593444E-2,-1.9729741E-1,-7.97132E-2,2.25798E-1,-1.1531408E-1,2.3632688E-2,1.2790401E-1,-8.4265016E-2,8.338107E-2,1.9367458E-2,-1.3727405E-2,7.965887E-2],"categories":[],"categories_nodes":[],"categories_segments":[],"categories_sizes":[],"default_left":[0,0,0,0,0,0,0,0,0,0,0,0,0,0,0,0,0,0,0,0,0],"id":31,"left_children":[1,3,5,7,9,-1,-1,11,-1,-1,13,15,17,-1,-1,19,-1,-1,-1,-1,-1],"loss_changes":[1.5981278E-1,2.1397147E-1,6.888336E-2,2.2302215E-1,1.8501773E-1,0E0,0E0,2.2025648E-1,0E0,0E0,2.834425E-1,2.7408314E-1,1.658605E-2,0E0,0E0,9.5639005E-2,0E0,0E0,0E0,0E0,0E0],"parents":[2147483647,0,0,1,1,2,2,3,3,4,4,7,7,10,10,11,11,12,12,15,15],"right_children":[2,4,6,8,10,-1,-1,12,-1,-1,14,16,18,-1,-1,20,-1,-1,-1,-1,-1],"split_conditions":[5.267E-1,2.1129384E2,6.249E-1,2.0927727E2,3E1,-9.119179E-2,-7.625573E-3,3.612E-1,1.2702852E-1,4.3593444E-2,2.2304636E2,3.6E1,4.2E1,-1.1531408E-1,2.3632688E-2,3.2E1,-8.4265016E-2,8.338107E-2,1.9367458E-2,-1.3727405E-2,7.965887E-2],"split_indices":[0,3,0,3,2,0,0,0,0,0,3,2,2,0,0,2,0,0,0,0,0],"split_type":[0,0,0,0,0,0,0,0,0,0,0,0,0,0,0,0,0,0,0,0,0],"sum_hessian":[1.735061E1,1.4386026E1,2.9645848E0,9.01252E0,5.3735075E0,1.0139074E0,1.9506774E0,7.8093805E0,1.2031388E0,1.4718629E0,3.9016445E0,4.7021227E0,3.1072578E0,2.0918045E0,1.8098398E0,2.4932103E0,2.2089124E0,1.8011007E0,1.3061572E0,1.3974122E0,1.0957983E0],"tree_param":{"num_deleted":"0","num_feature":"6","num_nodes":"21","size_leaf_vector":"1"}},{"base_weights":[-2.4191458E-2,5.8683116E-2,-6.338695E-2,-8.024122E-3,-1.04928456E-1,-2.1281503E-1,8.095221E-2,-7.707113E-4,-2.761343E-1,2.1948144E-1,-1.074789E-1,-1.7718991E-2,-1.0246334E-1,-3.514887E-2,3.0592012E-1,3.1434942E-2,-2.4584843E-1,1.091378E-1,1.7079484E-2,-9.931367E-2,-6.5562255E-3],"categories":[],"categories_nodes":[],"categories_segments":[],"categories_sizes":[],"default_left":[0,0,0,0,0,0,0,0,0,0,0,0,0,0,0,0,0,0,0,0,0],"id":32,"left_children":[1,-1,3,5,-1,7,9,-1,11,13,15,-1,-1,-1,17,-1,19,-1,-1,-1,-1],"loss_changes":[1.628832E-1,0E0,2.4419153E-1,2.7376276E-1,0E0,5.9726134E-2,2.9868996E-1,0E0,2.9232383E-2,2.2214773E-1,1.7662297E-1,0E0,0E0,0E0,5.6686997E-2,0E0,5.7808712E-2,0E0,0E0,0E0,0E0],"parents":[2147483647,0,0,2,2,3,3,5,5,6,6,8,8,9,9,10,10,14,14,16,16],"right_children":[2,-1,4,6,-1,8,10,-1,12,14,16,-1,-1,-1,18,-1,20,-1,-1,-1,-1],"split_conditions":[2.6E1,5.8683116E-2,7.838104E1,3.3E1,-1.04928456E-1,5.4945793E1,3.612E-1,-7.707113E-4,2.0164389E2,4.9042896E1,3.7E1,-1.7718991E-2,-1.0246334E-1,-3.514887E-2,4.6E1,3.1434942E-2,1.991602E2,1.091378E-1,1.7079484E-2,-9.931367E-2,-6.5562255E-3],"split_indices":[2,0,4,2,0,4,0,0,3,4,2,0,0,0,2,0,3,0,0,0,0],"split_type":[0,0,0,0,0,0,0,0,0,0,0,0,0,0,0,0,0,0,0,0,0],"sum_hessian":[1.6467192E1,1.888146E0,1.4579046E1,1.3078659E1,1.5003873E0,3.5397153E0,9.538943E0,1.0601511E0,2.4795642E0,5.4024396E0,4.136504E0,1.014801E0,1.4647633E0,1.0311348E0,4.3713045E0,1.7281744E0,2.4083295E0,3.1727731E0,1.1985315E0,1.3984897E0,1.00984E0],"tree_param":{"num_deleted":"0","num_feature":"6","num_nodes":"21","size_leaf_vector":"1"}},{"base_weights":[1.9522306E-2,-3.6111098E-2,2.1748815E-1,-9.8883934E-2,2.9067224E-2,1.0425744E-1,-8.779907E-3,1.3914932E-1,-5.7946872E-2,1.4579862E-2,8.2383454E-2,-2.4013264E-1,5.8115542E-2,7.235427E-2,-5.247236E-2,-8.569722E-2,-2.3108967E-2,2.1215793E-1,-4.0210202E-2,7.667204E-2,2.250847E-2],"categories":[],"categories_nodes":[],"categories_segments":[],"categories_sizes":[],"default_left":[0,0,0,0,0,0,0,0,0,0,0,0,0,0,0,0,0,0,0,0,0],"id":33,"left_children":[1,3,5,-1,7,-1,-1,9,11,13,-1,15,17,-1,-1,-1,-1,19,-1,-1,-1],"loss_changes":[1.8840748E-1,2.7080142E-1,1.3013804E-1,0E0,1.2389505E-1,0E0,0E0,9.10444E-2,1.716961E-1,2.1352382E-1,0E0,9.983033E-4,1.8714993E-1,0E0,0E0,0E0,0E0,8.485317E-4,0E0,0E0,0E0],"parents":[2147483647,0,0,1,1,2,2,4,4,7,7,8,8,9,9,11,11,12,12,17,17],"right_children":[2,4,6,-1,8,-1,-1,10,12,14,-1,16,18,-1,-1,-1,-1,20,-1,-1,-1],"split_conditions":[2.2367986E2,3.1E1,2.3602107E2,-9.8883934E-2,1.7999292E2,1.0425744E-1,-8.779907E-3,5.267E-1,2.0347914E2,5.4928303E1,8.2383454E-2,3.7E1,4E1,7.235427E-2,-5.247236E-2,-8.569722E-2,-2.3108967E-2,2.0927727E2,-4.0210202E-2,7.667204E-2,2.250847E-2],"split_indices":[3,2,3,0,3,0,0,0,3,4,0,2,2,0,0,0,0,3,0,0,0],"split_type":[0,0,0,0,0,0,0,0,0,0,0,0,0,0,0,0,0,0,0,0,0],"sum_hessian":[1.5393837E1,1.265504E1,2.7387967E0,1.5623927E0,1.1092648E1,1.5261508E0,1.2126459E0,4.6326685E0,6.4599786E0,2.99038E0,1.6422887E0,2.0978851E0,4.3620934E0,1.2375896E0,1.7527905E0,1.0526717E0,1.0452135E0,2.3633301E0,1.9987631E0,1.1389889E0,1.2243414E0],"tree_param":{"num_deleted":"0","num_feature":"6","num_nodes":"21","size_leaf_vector":"1"}},{"base_weights":[7.848959E-3,5.246777E-2,-1.637256E-1,1.3349947E-1,-8.534643E-2,-6.117396E-2,-7.870538E-3,5.0975185E-2,1.1887314E-1,-2.3187041E-1,6.374645E-2,-6.563028E-2,1.9773744E-1,-1.3223059E-2,-9.067425E-2,6.331613E-2,-2.8810654E-2,1.1841512E-1,-7.52345E-2,7.72729E-2,2.8847798E-3,-1.1833557E-2,7.3984735E-2],"categories":[],"categories_nodes":[],"categories_segments":[],"categories_sizes":[],"default_left":[0,0,0,0,0,0,0,0,0,0,0,0,0,0,0,0,0,0,0,0,0,0,0],"id":34,"left_children":[1,3,5,7,9,-1,-1,11,-1,13,15,17,19,-1,-1,-1,-1,21,-1,-1,-1,-1,-1],"loss_changes":[1.4212914E-1,1.7444612E-1,1.58832E-2,1.8762231E-1,1.4620997E-1,0E0,0E0,1.574373E-1,0E0,2.9629812E-2,1.08917296E-1,2.155749E-1,4.2400226E-2,0E0,0E0,0E0,0E0,7.883633E-2,0E0,0E0,0E0,0E0,0E0],"parents":[2147483647,0,0,1,1,2,2,3,3,4,4,7,7,9,9,10,10,11,11,12,12,17,17],"right_children":[2,4,6,8,10,-1,-1,12,-1,14,16,18,20,-1,-1,-1,-1,22,-1,-1,-1,-1,-1],"split_conditions":[5.267E-1,2.1129384E2,6.9E-1,2.0927727E2,2.2253265E2,-6.117396E-2,-7.870538E-3,3.612E-1,1.1887314E-1,3.5E1,2.2367986E2,3.6E1,3.772E-1,-1.3223059E-2,-9.067425E-2,6.331613E-2,-2.8810654E-2,3.2E1,-7.52345E-2,7.72729E-2,2.8847798E-3,-1.1833557E-2,7.3984735E-2],"split_indices":[0,3,0,3,3,0,0,0,0,2,3,2,0,0,0,0,0,2,0,0,0,0,0],"split_type":[0,0,0,0,0,0,0,0,0,0,0,0,0,0,0,0,0,0,0,0,0,0,0],"sum_hessian":[1.6443623E1,1.3600853E1,2.8427706E0,8.584603E0,5.016249E0,1.8259493E0,1.0168214E0,7.441381E0,1.1432226E0,2.249904E0,2.7663453E0,4.454782E0,2.9865987E0,1.0566487E0,1.1932552E0,1.2723998E0,1.4939455E0,2.4148242E0,2.039958E0,1.9857553E0,1.0008435E0,1.3924917E0,1.0223325E0],"tree_param":{"num_deleted":"0","num_feature":"6","num_nodes":"23","size_leaf_vector":"1"}},{"base_weights":[-2.7489832E-2,5.2900307E-2,-6.519094E-2,-1.3335589E-2,-9.927552E-2,-2.0531051E-1,7.039497E-2,-2.961858E-3,-2.6310253E-1,-1.2758534E-1,1.906943E-1,-9.386455E-2,-2.3383178E-2,-2.4829552E-1,2.8302632E-2,3.1078675E-1,-2.1481184E-2,-9.028311E-2,-2.3243396E-2,1.1570449E-1,1.5936753E-2,5.3810697E-2,-6.1102513E-2],"categories":[],"categories_nodes":[],"categories_segments":[],"categories_sizes":[],"default_left":[0,0,0,0,0,0,0,0,0,0,0,0,0,0,0,0,0,0,0,0,0,0,0],"id":35,"left_children":[1,-1,3,5,-1,7,9,-1,11,13,15,-1,-1,17,-1,19,21,-1,-1,-1,-1,-1,-1],"loss_changes":[1.3923219E-1,0E0,1.9894597E-1,2.2969316E-1,0E0,4.6217695E-2,2.641303E-1,0E0,5.9978217E-3,1.4142197E-1,1.7647406E-1,0E0,0E0,4.81686E-3,0E0,6.287652E-2,1.5889716E-1,0E0,0E0,0E0,0E0,0E0,0E0],"parents":[2147483647,0,0,2,2,3,3,5,5,6,6,8,8,9,9,10,10,13,13,15,15,16,16],"right_children":[2,-1,4,6,-1,8,10,-1,12,14,16,-1,-1,18,-1,20,22,-1,-1,-1,-1,-1,-1],"split_conditions":[2.6E1,5.2900307E-2,7.838104E1,3.3E1,-9.927552E-2,5.4945793E1,5.4928303E1,-2.961858E-3,6.574278E1,4.5E1,3.612E-1,-9.386455E-2,-2.3383178E-2,5.0609707E1,2.8302632E-2,4.5E1,6.441086E1,-9.028311E-2,-2.3243396E-2,1.1570449E-1,1.5936753E-2,5.3810697E-2,-6.1102513E-2],"split_indices":[2,0,4,2,0,4,4,0,4,2,0,0,0,4,0,2,4,0,0,0,0,0,0],"split_type":[0,0,0,0,0,0,0,0,0,0,0,0,0,0,0,0,0,0,0,0,0,0,0],"sum_hessian":[1.5622874E1,1.8646762E0,1.3758198E1,1.23904505E1,1.3677477E0,3.3219485E0,9.068501E0,1.025342E0,2.2966065E0,3.4047062E0,5.6637955E0,1.2663484E0,1.0302582E0,2.1282825E0,1.2764237E0,3.319933E0,2.3438625E0,1.044553E0,1.0837295E0,2.1873121E0,1.1326208E0,1.1222266E0,1.2216358E0],"tree_param":{"num_deleted":"0","num_feature":"6","num_nodes":"23","size_leaf_vector":"1"}},{"base_weights":[1.7247254E-2,-3.3723924E-2,1.977011E-1,-9.4313405E-2,2.7578238E-2,1.0801286E-1,-5.1952247E-3,6.453468E-2,-1.951732E-2,6.118304E-2,-8.541433E-2,-2.4663809E-1,3.8161397E-2,9.107694E-3,-1.0663532E-1,-3.3494227E-2,5.5077348E-2],"categories":[],"categories_nodes":[],"categories_segments":[],"categories_sizes":[],"default_left":[0,0,0,0,0,0,0,0,0,0,0,0,0,0,0,0,0],"id":36,"left_children":[1,3,5,-1,7,-1,-1,-1,9,-1,11,13,15,-1,-1,-1,-1],"loss_changes":[1.5011175E-1,2.3258412E-1,1.3122016E-1,0E0,1.06659874E-1,0E0,0E0,0E0,1.6745973E-1,0E0,1.8022633E-1,1.269572E-1,1.4510562E-1,0E0,0E0,0E0,0E0],"parents":[2147483647,0,0,1,1,2,2,4,4,8,8,10,10,11,11,12,12],"right_children":[2,4,6,-1,8,-1,-1,-1,10,-1,12,14,16,-1,-1,-1,-1],"split_conditions":[2.2367986E2,3.1E1,3.3E1,-9.4313405E-2,3.3E1,1.0801286E-1,-5.1952247E-3,6.453468E-2,0E0,6.118304E-2,3.612E-1,1.7999292E2,6.441086E1,9.107694E-3,-1.0663532E-1,-3.3494227E-2,5.5077348E-2],"split_indices":[3,2,2,0,2,0,0,0,0,0,0,3,4,0,0,0,0],"split_type":[0,0,0,0,0,0,0,0,0,0,0,0,0,0,0,0,0],"sum_hessian":[1.4595276E1,1.2014706E1,2.58057E0,1.4137821E0,1.0600924E1,1.0860866E0,1.4944835E0,1.411722E0,9.189202E0,1.6156278E0,7.573574E0,2.8541048E0,4.7194695E0,1.0083138E0,1.845791E0,2.4391584E0,2.280311E0],"tree_param":{"num_deleted":"0","num_feature":"6","num_nodes":"17","size_leaf_vector":"1"}},{"base_weights":[1.0219964E-2,5.1291365E-2,-1.4548016E-1,1.268719E-1,-7.752717E-2,-5.179597E-2,-1.0781882E-2,4.7652636E-2,1.1185959E-1,-2.2419761E-1,6.9074854E-2,7.2710745E-2,-4.106201E-2,-1.250655E-2,-8.726218E-2,5.7613567E-2,-2.2446271E-2,1.6333191E-1,-1.9360356E-1,-2.178328E-2,9.0221465E-2,-7.284741E-2,-1.52081745E-2],"categories":[],"categories_nodes":[],"categories_segments":[],"categories_sizes":[],"default_left":[0,0,0,0,0,0,0,0,0,0,0,0,0,0,0,0,0,0,0,0,0,0,0],"id":37,"left_children":[1,3,5,7,9,-1,-1,11,-1,13,15,-1,17,-1,-1,-1,-1,19,21,-1,-1,-1,-1],"loss_changes":[1.140502E-1,1.4544356E-1,4.926324E-3,1.6068372E-1,1.3957413E-1,0E0,0E0,1.494097E-1,0E0,2.5845274E-2,7.8966215E-2,0E0,2.3120719E-1,0E0,0E0,0E0,0E0,1.2811375E-1,1.6693905E-2,0E0,0E0,0E0,0E0],"parents":[2147483647,0,0,1,1,2,2,3,3,4,4,7,7,9,9,10,10,12,12,17,17,18,18],"right_children":[2,4,6,8,10,-1,-1,12,-1,14,16,-1,18,-1,-1,-1,-1,20,22,-1,-1,-1,-1],"split_conditions":[5.267E-1,2.1129384E2,2.0347914E2,2.0927727E2,2.2253265E2,-5.179597E-2,-1.0781882E-2,1.3088391E2,1.1185959E-1,3.5E1,2.2367986E2,7.2710745E-2,5.6113884E1,-1.250655E-2,-8.726218E-2,5.7613567E-2,-2.2446271E-2,1.7999292E2,7.956339E1,-2.178328E-2,9.0221465E-2,-7.284741E-2,-1.52081745E-2],"split_indices":[0,3,3,3,3,0,0,3,0,2,3,0,4,0,0,0,0,3,4,0,0,0,0],"split_type":[0,0,0,0,0,0,0,0,0,0,0,0,0,0,0,0,0,0,0,0,0,0,0],"sum_hessian":[1.56679125E1,1.2928216E1,2.7396972E0,8.15728E0,4.7709355E0,1.7335157E0,1.0061815E0,7.073166E0,1.0841143E0,2.120326E0,2.6506095E0,1.6717955E0,5.4013705E0,1.0022271E0,1.118099E0,1.2487985E0,1.401811E0,2.2781234E0,3.123247E0,1.0119854E0,1.2661381E0,1.8030796E0,1.3201674E0],"tree_param":{"num_deleted":"0","num_feature":"6","num_nodes":"23","size_leaf_vector":"1"}},{"base_weights":[-2.771825E-2,-1.2476581E-1,4.2332426E-2,-1.0058765E-1,-1.3268677E-2,2.57276E-1,-8.316148E-2,-5.0524104E-2,1.0630767E-1,3.2256737E-3,1.0757493E-1,6.2162153E-2,-1.873658E-1,-3.716438E-2,7.068065E-2,-1.08473726E-1,-3.1626083E-2,6.1107334E-2,-9.4500944E-2],"categories":[],"categories_nodes":[],"categories_segments":[],"categories_sizes":[],"default_left":[0,0,0,0,0,0,0,0,0,0,0,0,0,0,0,0,0,0,0],"id":38,"left_children":[1,3,5,-1,7,9,11,-1,13,-1,-1,-1,15,-1,-1,-1,17,-1,-1],"loss_changes":[1.13030575E-1,1.5746261E-1,2.8983548E-1,0E0,1.2087811E-1,9.3863904E-2,2.5180775E-1,0E0,1.4072646E-1,0E0,0E0,0E0,1.4335763E-1,0E0,0E0,0E0,3.381098E-1,0E0,0E0],"parents":[2147483647,0,0,1,1,2,2,4,4,5,5,6,6,8,8,12,12,16,16],"right_children":[2,4,6,-1,8,10,12,-1,14,-1,-1,-1,16,-1,-1,-1,18,-1,-1],"split_conditions":[5.6913876E1,1.916951E2,6.6194016E1,-1.0058765E-1,3.3E1,3.3E1,2.6E1,-5.0524104E-2,4.9042896E1,3.2256737E-3,1.0757493E-1,6.2162153E-2,7.21765E1,-3.716438E-2,7.068065E-2,-1.08473726E-1,7.838104E1,6.1107334E-2,-9.4500944E-2],"split_indices":[4,3,4,0,2,2,2,0,4,0,0,0,4,0,0,0,4,0,0],"split_type":[0,0,0,0,0,0,0,0,0,0,0,0,0,0,0,0,0,0,0],"sum_hessian":[1.4849518E1,5.89775E0,8.951768E0,1.347067E0,4.550683E0,2.9127529E0,6.0390153E0,1.8029786E0,2.7477043E0,1.170517E0,1.742236E0,1.3338183E0,4.705197E0,1.0033181E0,1.7443861E0,1.5970359E0,3.108161E0,1.8517025E0,1.2564585E0],"tree_param":{"num_deleted":"0","num_feature":"6","num_nodes":"19","size_leaf_vector":"1"}},{"base_weights":[1.4671715E-2,1.7562048E-1,-4.1324027E-2,8.450807E-4,9.125467E-2,-1.1004579E-1,4.400188E-2,-7.449451E-2,9.431225E-2,3.5287917E-2,-1.0263887E-1,-6.6779085E-2,6.643259E-2,-5.9096143E-2,6.730259E-2],"categories":[],"categories_nodes":[],"categories_segments":[],"categories_sizes":[],"default_left":[0,0,0,0,0,0,0,0,0,0,0,0,0,0,0],"id":39,"left_children":[1,3,5,-1,-1,-1,7,9,-1,11,-1,13,-1,-1,-1],"loss_changes":[1.4056386E-1,8.81912E-2,3.4339437E-1,0E0,0E0,0E0,3.5112685E-1,2.4478194E-1,0E0,1.3872404E-1,0E0,2.3301402E-1,0E0,0E0,0E0],"parents":[2147483647,0,0,1,1,2,2,6,6,7,7,9,9,11,11],"right_children":[2,4,6,-1,-1,-1,8,10,-1,12,-1,14,-1,-1,-1],"split_conditions":[5.0609707E1,4.06E-2,5.4928303E1,8.450807E-4,9.125467E-2,-1.1004579E-1,2.1647581E2,2.0927727E2,9.431225E-2,5.267E-1,-1.0263887E-1,2.0299603E2,6.643259E-2,-5.9096143E-2,6.730259E-2],"split_indices":[4,0,4,0,0,0,3,3,0,0,0,3,0,0,0],"split_type":[0,0,0,0,0,0,0,0,0,0,0,0,0,0,0],"sum_hessian":[1.3791381E1,3.0082986E0,1.0783082E1,1.7192782E0,1.2890205E0,1.554406E0,9.228676E0,6.920218E0,2.3084583E0,5.5229025E0,1.3973153E0,3.9812694E0,1.5416334E0,2.9743145E0,1.0069548E0],"tree_param":{"num_deleted":"0","num_feature":"6","num_nodes":"15","size_leaf_vector":"1"}},{"base_weights":[1.32101895E-2,5.272201E-2,-1.363084E-1,1.2366073E-1,-6.968233E-2,-4.842385E-2,-1.1562022E-2,5.0156333E-2,1.0442259E-1,3.9130807E-2,-1.5796332E-1,6.81138E-2,-3.2807138E-2,-1.05697215E-1,3.076523E-2,-7.2439E-2,1.1057157E-1,8.5483864E-2,-2.7422063E-2],"categories":[],"categories_nodes":[],"categories_segments":[],"categories_sizes":[],"default_left":[0,0,0,0,0,0,0,0,0,0,0,0,0,0,0,0,0,0,0],"id":40,"left_children":[1,3,5,7,9,-1,-1,11,-1,-1,13,-1,15,-1,-1,-1,17,-1,-1],"loss_changes":[1.01511925E-1,1.24538906E-1,2.6549473E-3,1.2790464E-1,1.18439056E-1,0E0,0E0,1.22011006E-1,0E0,0E0,2.5359988E-1,0E0,2.1181884E-1,0E0,0E0,0E0,1.7937642E-1,0E0,0E0],"parents":[2147483647,0,0,1,1,2,2,3,3,4,4,7,7,10,10,12,12,16,16],"right_children":[2,4,6,8,10,-1,-1,12,-1,-1,14,-1,16,-1,-1,-1,18,-1,-1],"split_conditions":[5.267E-1,2.1129384E2,3.7E1,2.0927727E2,3E1,-4.842385E-2,-1.1562022E-2,1.3088391E2,1.0442259E-1,3.9130807E-2,2.2304636E2,6.81138E-2,1.7999292E2,-1.05697215E-1,3.076523E-2,-7.2439E-2,1.9779816E2,8.5483864E-2,-2.7422063E-2],"split_indices":[0,3,2,3,2,0,0,3,0,0,3,0,3,0,0,0,3,0,0],"split_type":[0,0,0,0,0,0,0,0,0,0,0,0,0,0,0,0,0,0,0],"sum_hessian":[1.496639E1,1.2350129E1,2.6162603E0,7.8122954E0,4.537834E0,1.5637553E0,1.0525051E0,6.806427E0,1.0058682E0,1.2428927E0,3.2949414E0,1.6186155E0,5.1878114E0,1.68523E0,1.6097114E0,1.8342987E0,3.3535128E0,1.579287E0,1.7742257E0],"tree_param":{"num_deleted":"0","num_feature":"6","num_nodes":"19","size_leaf_vector":"1"}},{"base_weights":[-2.8644413E-2,4.2207934E-2,-6.190058E-2,-1.575588E-2,-8.843332E-2,9.5004834E-2,-1.451768E-1,-3.503424E-2,1.7862143E-1,1.8082805E-2,-1.0657935E-1,-1.0676189E-2,2.8033966E-1,-5.5678576E-2,5.9871633E-2,1.0746254E-1,3.0026026E-2],"categories":[],"categories_nodes":[],"categories_segments":[],"categories_sizes":[],"default_left":[0,0,0,0,0,0,0,0,0,0,0,0,0,0,0,0,0],"id":41,"left_children":[1,-1,3,5,-1,7,9,-1,11,13,-1,-1,15,-1,-1,-1,-1],"loss_changes":[9.284123E-2,0E0,1.3700604E-1,1.8664277E-1,0E0,1.4662597E-1,2.107151E-1,0E0,1.295319E-1,1.961093E-1,0E0,0E0,1.794827E-2,0E0,0E0,0E0,0E0],"parents":[2147483647,0,0,2,2,3,3,5,5,6,6,8,8,9,9,12,12],"right_children":[2,-1,4,6,-1,8,10,-1,12,14,-1,-1,16,-1,-1,-1,-1],"split_conditions":[2.6E1,4.2207934E-2,7.838104E1,3.612E-1,-8.843332E-2,3.3E1,2.1392769E2,-3.503424E-2,5.0609707E1,5.629844E1,-1.0657935E-1,-1.0676189E-2,2.080291E2,-5.5678576E-2,5.9871633E-2,1.0746254E-1,3.0026026E-2],"split_indices":[2,0,4,0,0,2,3,0,4,4,0,0,3,0,0,0,0],"split_type":[0,0,0,0,0,0,0,0,0,0,0,0,0,0,0,0,0],"sum_hessian":[1.3939537E1,1.7578958E0,1.2181642E1,1.1058126E1,1.1235145E0,6.1019197E0,4.9562073E0,1.6149424E0,4.486977E0,3.303206E0,1.6530012E0,1.6539847E0,2.8329928E0,1.5457971E0,1.7574087E0,1.2889255E0,1.5440671E0],"tree_param":{"num_deleted":"0","num_feature":"6","num_nodes":"17","size_leaf_vector":"1"}},{"base_weights":[1.21770585E-2,1.6025452E-1,-4.0657196E-2,8.038222E-2,-5.5732885E-3,-1.059708E-1,4.3064147E-2,-6.1864417E-2,8.356805E-2,4.1097477E-2,-9.5912226E-2,-5.263298E-2,6.1434314E-2,-4.9496498E-2,5.3268388E-2],"categories":[],"categories_nodes":[],"categories_segments":[],"categories_sizes":[],"default_left":[0,0,0,0,0,0,0,0,0,0,0,0,0,0,0],"id":42,"left_children":[1,3,5,-1,-1,-1,7,9,-1,11,-1,13,-1,-1,-1],"loss_changes":[1.1632975E-1,7.995851E-2,3.0681378E-1,0E0,0E0,0E0,2.5643182E-1,2.1263997E-1,0E0,1.0676416E-1,0E0,1.527631E-1,0E0,0E0,0E0],"parents":[2147483647,0,0,1,1,2,2,6,6,7,7,9,9,11,11],"right_children":[2,4,6,-1,-1,-1,8,10,-1,12,-1,14,-1,-1,-1],"split_conditions":[5.0609707E1,2.1338437E2,5.4928303E1,8.038222E-2,-5.5732885E-3,-1.059708E-1,2.1647581E2,2.0927727E2,8.356805E-2,5.267E-1,-9.5912226E-2,2.0164389E2,6.1434314E-2,-4.9496498E-2,5.3268388E-2],"split_indices":[4,3,4,0,0,0,3,3,0,0,0,3,0,0,0],"split_type":[0,0,0,0,0,0,0,0,0,0,0,0,0,0,0],"sum_hessian":[1.3036348E1,2.893537E0,1.0142811E1,1.4950136E0,1.3985233E0,1.462667E0,8.680144E0,6.5147204E0,2.1654236E0,5.2563605E0,1.2583601E0,3.7738051E0,1.4825552E0,2.7263622E0,1.0474432E0],"tree_param":{"num_deleted":"0","num_feature":"6","num_nodes":"15","size_leaf_vector":"1"}},{"base_weights":[1.2432069E-2,4.0926695E-2,-5.8031037E-2,-1.8568432E-2,1.08270444E-1,6.6248484E-2,-2.0954373E-1,-5.128705E-2,8.6782455E-2,-9.8920904E-2,-1.0488661E-2,3.7641384E-2,-8.597547E-2,4.2406447E-2,-6.7107365E-2],"categories":[],"categories_nodes":[],"categories_segments":[],"categories_sizes":[],"default_left":[0,0,0,0,0,0,0,0,0,0,0,0,0,0,0],"id":43,"left_children":[1,3,-1,5,-1,7,9,11,-1,-1,-1,13,-1,-1,-1],"loss_changes":[9.694265E-2,2.7619585E-1,0E0,2.2264025E-1,0E0,2.6869285E-1,7.668097E-2,1.6126439E-1,0E0,0E0,0E0,1.9702911E-1,0E0,0E0,0E0],"parents":[2147483647,0,0,1,1,3,3,5,5,6,6,7,7,11,11],"right_children":[2,4,-1,6,-1,8,10,12,-1,-1,-1,14,-1,-1,-1],"split_conditions":[8.9779144E1,7.956339E1,-5.8031037E-2,4.2E1,1.08270444E-1,3.8E1,4.7E1,3.5E1,8.6782455E-2,-9.8920904E-2,-1.0488661E-2,2.2296965E2,-8.597547E-2,4.2406447E-2,-6.7107365E-2],"split_indices":[4,4,0,2,0,2,2,2,0,0,0,3,0,0,0],"split_type":[0,0,0,0,0,0,0,0,0,0,0,0,0,0,0],"sum_hessian":[1.4176194E1,1.3156398E1,1.019797E0,1.1887957E1,1.268441E0,8.684194E0,3.2037632E0,6.191366E0,2.4928274E0,1.3710942E0,1.8326689E0,5.10283E0,1.0885363E0,3.9817266E0,1.1211032E0],"tree_param":{"num_deleted":"0","num_feature":"6","num_nodes":"15","size_leaf_vector":"1"}},{"base_weights":[-2.5322013E-2,3.9281227E-2,-5.725943E-2,3.138184E-2,-1.5891111E-1,-1.1660071E-1,1.842032E-1,-2.709278E-2,-1.0048466E-1,-6.4303584E-2,6.0960026E-3,8.444877E-2,-1.0681819E-2,3.6334287E-2,-5.3765293E-2],"categories":[],"categories_nodes":[],"categories_segments":[],"categories_sizes":[],"default_left":[0,0,0,0,0,0,0,0,0,0,0,0,0,0,0],"id":44,"left_children":[1,-1,3,5,7,9,11,13,-1,-1,-1,-1,-1,-1,-1],"loss_changes":[7.8366846E-2,0E0,1.1749831E-1,1.9120908E-1,1.2972319E-1,6.358136E-2,9.727506E-2,1.2334911E-1,0E0,0E0,0E0,0E0,0E0,0E0,0E0],"parents":[2147483647,0,0,2,2,3,3,4,4,5,5,6,6,7,7],"right_children":[2,-1,4,6,8,10,12,14,-1,-1,-1,-1,-1,-1,-1],"split_conditions":[2.6E1,3.9281227E-2,3.612E-1,2.1129384E2,2.1392769E2,7.21765E1,2.2304636E2,3.7E1,-1.0048466E-1,-6.4303584E-2,6.0960026E-3,8.444877E-2,-1.0681819E-2,3.6334287E-2,-5.3765293E-2],"split_indices":[2,0,0,3,3,4,3,2,0,0,0,0,0,0,0],"split_type":[0,0,0,0,0,0,0,0,0,0,0,0,0,0,0],"sum_hessian":[1.32008095E1,1.7141613E0,1.1486649E1,6.50527E0,4.9813786E0,3.4253705E0,3.0798995E0,3.5082664E0,1.473112E0,1.6686728E0,1.7566975E0,1.9403971E0,1.1395024E0,1.8802698E0,1.6279966E0],"tree_param":{"num_deleted":"0","num_feature":"6","num_nodes":"15","size_leaf_vector":"1"}},{"base_weights":[1.2732158E-2,-3.1339515E-2,1.605582E-1,-8.511716E-2,2.6139664E-2,8.909774E-2,-1.7350083E-2,6.0879003E-2,-2.6926352E-2,4.986898E-2,-8.1605166E-2,-1.4825799E-1,4.5846183E-2,3.7131205E-2,-7.323273E-2],"categories":[],"categories_nodes":[],"categories_segments":[],"categories_sizes":[],"default_left":[0,0,0,0,0,0,0,0,0,0,0,0,0,0,0],"id":45,"left_children":[1,3,5,-1,7,-1,-1,-1,9,-1,11,13,-1,-1,-1],"loss_changes":[9.2217654E-2,1.6910523E-1,1.1361896E-1,0E0,9.92218E-2,0E0,0E0,0E0,1.0407189E-1,0E0,1.3749433E-1,1.9265793E-1,0E0,0E0,0E0],"parents":[2147483647,0,0,1,1,2,2,4,4,8,8,10,10,11,11],"right_children":[2,4,6,-1,8,-1,-1,-1,10,-1,12,14,-1,-1,-1],"split_conditions":[2.2367986E2,3.1E1,2.3602107E2,-8.511716E-2,0E0,8.909774E-2,-1.7350083E-2,6.0879003E-2,3.3E1,4.986898E-2,1E0,1.3049864E2,4.5846183E-2,3.7131205E-2,-7.323273E-2],"split_indices":[3,2,3,0,0,0,0,0,2,0,1,3,0,0,0],"split_type":[0,0,0,0,0,0,0,0,0,0,0,0,0,0,0],"sum_hessian":[1.2382446E1,1.0145689E1,2.2367573E0,1.1518657E0,8.993823E0,1.1551824E0,1.081575E0,1.4243782E0,7.5694447E0,1.2199128E0,6.349532E0,5.2300687E0,1.1194633E0,1.2868019E0,3.9432669E0],"tree_param":{"num_deleted":"0","num_feature":"6","num_nodes":"15","size_leaf_vector":"1"}},{"base_weights":[7.21854E-3,4.62831E-2,-4.1090377E-2,7.727715E-2,-4.23765E-2,2.1401603E-2,2.0231715E-1,1.6295893E-1,-7.488844E-2,8.575267E-2,6.571703E-3,-1.8073585E-2,9.54361E-2,2.0932212E-2,-1.6298911E-1,-5.5580027E-3,-7.639617E-2],"categories":[],"categories_nodes":[],"categories_segments":[],"categories_sizes":[],"default_left":[0,0,0,0,0,0,0,0,0,0,0,0,0,0,0,0,0],"id":46,"left_children":[1,3,-1,5,-1,7,9,11,13,-1,-1,-1,-1,-1,15,-1,-1],"loss_changes":[8.805456E-2,8.161041E-2,0E0,7.310896E-2,0E0,1.3186468E-1,4.353988E-2,1.5315548E-1,8.669424E-2,0E0,0E0,0E0,0E0,0E0,4.789065E-2,0E0,0E0],"parents":[2147483647,0,0,1,1,3,3,5,5,6,6,7,7,8,8,14,14],"right_children":[2,4,-1,6,-1,8,10,12,14,-1,-1,-1,-1,-1,16,-1,-1],"split_conditions":[5.267E-1,1E0,-4.1090377E-2,4.6E1,-4.23765E-2,5.6113884E1,4.06E-2,5.2214684E1,3E1,8.575267E-2,6.571703E-3,-1.8073585E-2,9.54361E-2,2.0932212E-2,7.21765E1,-5.5580027E-3,-7.639617E-2],"split_indices":[0,1,0,2,0,4,0,4,2,0,0,0,0,0,4,0,0],"split_type":[0,0,0,0,0,0,0,0,0,0,0,0,0,0,0,0,0],"sum_hessian":[1.3507607E1,1.116238E1,2.345228E0,1.0083791E1,1.0785892E0,7.7788715E0,2.304919E0,2.8688943E0,4.909977E0,1.1760519E0,1.1288671E0,1.4273438E0,1.4415506E0,1.9371575E0,2.9728196E0,1.6207124E0,1.3521072E0],"tree_param":{"num_deleted":"0","num_feature":"6","num_nodes":"17","size_leaf_vector":"1"}},{"base_weights":[-2.0190936E-2,-5.684935E-2,1.2272428E-2,5.6426127E-2,-4.9403694E-2,-6.832737E-2,1.2843958E-1,-6.094225E-2,3.706368E-2,7.508802E-2,-4.3949906E-2,3.1903267E-2,-4.7618523E-2],"categories":[],"categories_nodes":[],"categories_segments":[],"categories_sizes":[],"default_left":[0,0,0,0,0,0,0,0,0,0,0,0,0],"id":47,"left_children":[1,-1,3,5,-1,7,9,-1,-1,-1,11,-1,-1],"loss_changes":[7.7214934E-2,0E0,1.059586E-1,1.04423314E-1,0E0,1.4277138E-1,1.600886E-1,0E0,0E0,0E0,8.225615E-2,0E0,0E0],"parents":[2147483647,0,0,2,2,3,3,5,5,6,6,10,10],"right_children":[2,-1,4,6,-1,8,10,-1,-1,-1,12,-1,-1],"split_conditions":[4.9042896E1,-5.684935E-2,7.838104E1,3.3E1,-4.9403694E-2,4.364E-1,3.612E-1,-6.094225E-2,3.706368E-2,7.508802E-2,3.7E1,3.1903267E-2,-4.7618523E-2],"split_indices":[4,0,4,2,0,0,0,0,0,0,2,0,0],"split_type":[0,0,0,0,0,0,0,0,0,0,0,0,0],"sum_hessian":[1.2625479E1,1.253064E0,1.1372415E1,9.646499E0,1.7259164E0,3.549192E0,6.0973067E0,2.0500581E0,1.499134E0,3.3074932E0,2.7898135E0,1.2398295E0,1.5499839E0],"tree_param":{"num_deleted":"0","num_feature":"6","num_nodes":"13","size_leaf_vector":"1"}},{"base_weights":[1.6269231E-2,1.45269E-1,-3.2369975E-2,-3.6393742E-3,8.0607876E-2,-9.4966836E-2,4.2460475E-2,-3.9082166E-2,9.192835E-2,-1.470033E-1,9.78741E-2,3.5355538E-2,-2.587539E-1,-2.9073036E-3,4.4139583E-2,-1.3269623E-2,-9.837076E-2],"categories":[],"categories_nodes":[],"categories_segments":[],"categories_sizes":[],"default_left":[0,0,0,0,0,0,0,0,0,0,0,0,0,0,0,0,0],"id":48,"left_children":[1,3,5,-1,-1,-1,7,9,-1,11,13,-1,15,-1,-1,-1,-1],"loss_changes":[8.534774E-2,7.516826E-2,2.2932059E-1,0E0,0E0,0E0,2.0391783E-1,1.2819259E-1,0E0,1.6978136E-1,2.2586029E-2,0E0,3.923212E-2,0E0,0E0,0E0,0E0],"parents":[2147483647,0,0,1,1,2,2,6,6,7,7,9,9,10,10,12,12],"right_children":[2,4,6,-1,-1,-1,8,10,-1,12,14,-1,16,-1,-1,-1,-1],"split_conditions":[5.0609707E1,4.06E-2,5.4928303E1,-3.6393742E-3,8.0607876E-2,-9.4966836E-2,2.2225502E2,3.772E-1,9.192835E-2,0E0,6.6194016E1,3.5355538E-2,5.9061592E1,-2.9073036E-3,4.4139583E-2,-1.3269623E-2,-9.837076E-2],"split_indices":[4,0,4,0,0,0,3,0,0,0,4,0,4,0,0,0,0],"split_type":[0,0,0,0,0,0,0,0,0,0,0,0,0,0,0,0,0],"sum_hessian":[1.1852988E1,2.701491E0,9.151497E0,1.583629E0,1.1178621E0,1.234163E0,7.9173336E0,6.6996694E0,1.2176641E0,3.705996E0,2.9936733E0,1.0834837E0,2.6225123E0,1.1926105E0,1.801063E0,1.0389655E0,1.5835469E0],"tree_param":{"num_deleted":"0","num_feature":"6","num_nodes":"17","size_leaf_vector":"1"}},{"base_weights":[5.4482315E-3,5.5660665E-2,-9.521033E-2,-1.01033315E-1,1.2205419E-1,4.035247E-2,-1.9338782E-1,7.5008865E-3,-5.6073826E-2,1.0142539E-1,-1.3942555E-2,-9.946473E-2,6.792147E-3,-1.5977088E-1,5.845956E-2,-4.6786903E-3,-8.316082E-2],"categories":[],"categories_nodes":[],"categories_segments":[],"categories_sizes":[],"default_left":[0,0,0,0,0,0,0,0,0,0,0,0,0,0,0,0,0],"id":49,"left_children":[1,3,5,7,9,-1,11,-1,-1,-1,13,-1,-1,15,-1,-1,-1],"loss_changes":[7.605431E-2,1.1606349E-1,1.394098E-1,4.2714853E-2,2.2377649E-1,0E0,1.24886274E-1,0E0,0E0,0E0,1.9971031E-1,0E0,0E0,6.0168497E-2,0E0,0E0,0E0],"parents":[2147483647,0,0,1,1,2,2,3,3,4,4,6,6,10,10,13,13],"right_children":[2,4,6,8,10,-1,12,-1,-1,-1,14,-1,-1,16,-1,-1,-1],"split_conditions":[3.772E-1,1.7999292E2,5.2846844E1,4E1,2.0164389E2,4.035247E-2,6.820086E1,7.5008865E-3,-5.6073826E-2,1.0142539E-1,6.1456352E1,-9.946473E-2,6.792147E-3,5.309625E1,5.845956E-2,-4.6786903E-3,-8.316082E-2],"split_indices":[0,3,4,2,3,0,4,0,0,0,4,0,0,4,0,0,0],"split_type":[0,0,0,0,0,0,0,0,0,0,0,0,0,0,0,0,0],"sum_hessian":[1.2998908E1,8.970904E0,4.0280037E0,2.5145745E0,6.4563303E0,1.0952511E0,2.9327526E0,1.3063059E0,1.2082689E0,1.9201701E0,4.53616E0,1.4625976E0,1.4701549E0,2.8091397E0,1.7270204E0,1.7694855E0,1.0396543E0],"tree_param":{"num_deleted":"0","num_feature":"6","num_nodes":"17","size_leaf_vector":"1"}},{"base_weights":[-2.179756E-2,4.139665E-2,-5.635918E-2,2.5038747E-2,-1.8090405E-1,-7.606521E-2,6.3594624E-2,-9.5713675E-2,-3.368934E-2,-1.4058223E-1,2.6786823E-2,3.7371263E-2,-5.5515144E-2,-8.690037E-2,-1.655376E-2,2.7434016E-2,-4.0169653E-2],"categories":[],"categories_nodes":[],"categories_segments":[],"categories_sizes":[],"default_left":[0,0,0,0,0,0,0,0,0,0,0,0,0,0,0,0,0],"id":50,"left_children":[1,-1,3,5,7,9,-1,-1,11,13,-1,-1,-1,-1,15,-1,-1],"loss_changes":[8.007825E-2,0E0,1.208492E-1,1.6387804E-1,8.3950624E-2,7.452837E-2,0E0,0E0,1.0383435E-1,7.965896E-2,0E0,0E0,0E0,0E0,5.7283055E-2,0E0,0E0],"parents":[2147483647,0,0,2,2,3,3,4,4,5,5,8,8,9,9,14,14],"right_children":[2,-1,4,6,8,10,-1,-1,12,14,-1,-1,-1,-1,16,-1,-1],"split_conditions":[2.6E1,4.139665E-2,6.6194016E1,4.5E1,7.21765E1,5.6913876E1,6.3594624E-2,-9.5713675E-2,7.8365234E1,1.916951E2,2.6786823E-2,3.7371263E-2,-5.5515144E-2,-8.690037E-2,3.612E-1,2.7434016E-2,-4.0169653E-2],"split_indices":[2,0,4,2,4,4,0,0,4,3,0,0,0,0,0,0,0],"split_type":[0,0,0,0,0,0,0,0,0,0,0,0,0,0,0,0,0],"sum_hessian":[1.2092192E1,1.6182234E0,1.04739685E1,6.817355E0,3.6566133E0,4.8094087E0,2.0079463E0,1.284277E0,2.3723364E0,3.5673404E0,1.2420685E0,1.2462634E0,1.1260729E0,1.013541E0,2.5537994E0,1.4447774E0,1.109022E0],"tree_param":{"num_deleted":"0","num_feature":"6","num_nodes":"17","size_leaf_vector":"1"}},{"base_weights":[1.5892915E-2,1.4134008E-1,-3.2817442E-2,7.262172E-2,-9.200957E-3,-8.994993E-2,3.798758E-2,2.2148478E-1,-6.8023875E-2,8.913561E-2,7.08422E-3,-8.4876165E-2,3.183581E-2,6.296834E-2,-7.3317565E-2,3.2614395E-2,-5.3271387E-2],"categories":[],"categories_nodes":[],"categories_segments":[],"categories_sizes":[],"default_left":[0,0,0,0,0,0,0,0,0,0,0,0,0,0,0,0,0],"id":51,"left_children":[1,3,5,-1,-1,-1,7,9,11,-1,-1,-1,13,-1,15,-1,-1],"loss_changes":[7.940833E-2,6.9988154E-2,1.933676E-1,0E0,0E0,0E0,1.8032764E-1,4.3056518E-2,1.4097616E-1,0E0,0E0,0E0,1.1083162E-1,0E0,9.4189376E-2,0E0,0E0],"parents":[2147483647,0,0,1,1,2,2,6,6,7,7,8,8,12,12,14,14],"right_children":[2,4,6,-1,-1,-1,8,10,12,-1,-1,-1,14,-1,16,-1,-1],"split_conditions":[5.0609707E1,2.1338437E2,5.4928303E1,7.262172E-2,-9.200957E-3,-8.994993E-2,6.1028908E1,3.3E1,6.7063545E1,8.913561E-2,7.08422E-3,-8.4876165E-2,7.1921036E1,6.296834E-2,0E0,3.2614395E-2,-5.3271387E-2],"split_indices":[4,3,4,0,0,0,4,2,4,0,0,0,4,0,0,0,0],"split_type":[0,0,0,0,0,0,0,0,0,0,0,0,0,0,0,0,0],"sum_hessian":[1.1236148E1,2.6107805E0,8.625367E0,1.3896552E0,1.2211252E0,1.1298634E0,7.495504E0,2.3458223E0,5.1496816E0,1.3342428E0,1.0115796E0,1.0521939E0,4.0974874E0,1.1515172E0,2.9459703E0,1.0572207E0,1.8887497E0],"tree_param":{"num_deleted":"0","num_feature":"6","num_nodes":"17","size_leaf_vector":"1"}},{"base_weights":[5.271058E-3,5.2088633E-2,-8.889789E-2,-9.7253755E-2,1.1639661E-1,-6.533345E-2,2.0551672E-2,4.9262247E-3,-5.1703252E-2,9.320314E-2,-6.2001385E-3,-1.3910475E-1,5.3735718E-2,4.1085305E-3,-6.5176606E-2],"categories":[],"categories_nodes":[],"categories_segments":[],"categories_sizes":[],"default_left":[0,0,0,0,0,0,0,0,0,0,0,0,0,0,0],"id":52,"left_children":[1,3,5,7,9,-1,-1,-1,-1,-1,11,13,-1,-1,-1],"loss_changes":[6.360752E-2,1.0318682E-1,1.12529054E-1,3.2056827E-2,1.7202523E-1,0E0,0E0,0E0,0E0,0E0,1.5690723E-1,4.6963982E-2,0E0,0E0,0E0],"parents":[2147483647,0,0,1,1,2,2,3,3,4,4,10,10,11,11],"right_children":[2,4,6,8,10,-1,-1,-1,-1,-1,12,14,-1,-1,-1],"split_conditions":[3.772E-1,1.7999292E2,3.7E1,4E1,2.0164389E2,-6.533345E-2,2.0551672E-2,4.9262247E-3,-5.1703252E-2,9.320314E-2,6.1456352E1,5.0327885E1,5.3735718E-2,4.1085305E-3,-6.5176606E-2],"split_indices":[0,3,2,2,3,0,0,0,0,0,4,4,0,0,0],"split_type":[0,0,0,0,0,0,0,0,0,0,0,0,0,0,0],"sum_hessian":[1.23772135E1,8.565567E0,3.8116465E0,2.424E0,6.1415668E0,1.8848143E0,1.9268322E0,1.2750719E0,1.1489282E0,1.7825694E0,4.3589973E0,2.6837096E0,1.6752877E0,1.18722E0,1.4964898E0],"tree_param":{"num_deleted":"0","num_feature":"6","num_nodes":"15","size_leaf_vector":"1"}},{"base_weights":[-2.11297E-2,3.8258083E-2,-5.398158E-2,2.1065723E-2,-1.689771E-1,-5.6071777E-2,7.620223E-2,-8.977056E-2,-3.2586697E-2,6.837755E-2,-7.13736E-2,3.3046465E-2,-5.0440867E-2,-3.2310084E-2,1.7189425E-1,8.568404E-2,-1.1359761E-2],"categories":[],"categories_nodes":[],"categories_segments":[],"categories_sizes":[],"default_left":[0,0,0,0,0,0,0,0,0,0,0,0,0,0,0,0,0],"id":53,"left_children":[1,-1,3,5,7,9,-1,-1,11,13,-1,-1,-1,-1,15,-1,-1],"loss_changes":[6.81282E-2,0E0,9.82617E-2,1.4953189E-1,6.920493E-2,1.6280483E-1,0E0,0E0,8.224007E-2,1.02741875E-1,0E0,0E0,0E0,0E0,8.9422464E-2,0E0,0E0],"parents":[2147483647,0,0,2,2,3,3,4,4,5,5,8,8,9,9,14,14],"right_children":[2,-1,4,6,8,10,-1,-1,12,14,-1,-1,-1,-1,16,-1,-1],"split_conditions":[2.6E1,3.8258083E-2,6.6194016E1,6.3225513E1,7.21765E1,3.612E-1,7.620223E-2,-8.977056E-2,7.8365234E1,2.1338437E2,-7.13736E-2,3.3046465E-2,-5.0440867E-2,-3.2310084E-2,2.2304636E2,8.568404E-2,-1.1359761E-2],"split_indices":[2,0,4,4,4,0,0,0,4,3,0,0,0,0,3,0,0],"split_type":[0,0,0,0,0,0,0,0,0,0,0,0,0,0,0,0,0],"sum_hessian":[1.1540639E1,1.5671806E0,9.973458E0,6.5292277E0,3.4442308E0,5.4753733E0,1.0538545E0,1.1510105E0,2.2932203E0,3.621102E0,1.8542712E0,1.2082295E0,1.0849909E0,1.3257091E0,2.295393E0,1.2539554E0,1.0414376E0],"tree_param":{"num_deleted":"0","num_feature":"6","num_nodes":"17","size_leaf_vector":"1"}},{"base_weights":[1.360938E-2,4.6141952E-2,-2.6670877E-2,-5.7937082E-2,3.4768358E-2,-5.2446757E-2,6.849343E-2,8.7890595E-2,-1.5053897E-1,-3.1560335E-2,7.523692E-2,-1.1961214E-2,-6.1028417E-2],"categories":[],"categories_nodes":[],"categories_segments":[],"categories_sizes":[],"default_left":[0,0,0,0,0,0,0,0,0,0,0,0,0],"id":54,"left_children":[1,-1,3,-1,5,7,-1,9,11,-1,-1,-1,-1],"loss_changes":[7.015562E-2,0E0,1.0835174E-1,0E0,1.4881009E-1,1.0135329E-1,0E0,1.29082E-1,1.6100422E-2,0E0,0E0,0E0,0E0],"parents":[2147483647,0,0,2,2,4,4,5,5,7,7,8,8],"right_children":[2,-1,4,-1,6,8,-1,10,12,-1,-1,-1,-1],"split_conditions":[4.9042896E1,4.6141952E-2,5.4928303E1,-5.7937082E-2,2.1647581E2,1.4719366E2,6.849343E-2,5.267E-1,4.06E-2,-3.1560335E-2,7.523692E-2,-1.1961214E-2,-6.1028417E-2],"split_indices":[4,0,4,0,3,3,0,0,0,0,0,0,0],"split_type":[0,0,0,0,0,0,0,0,0,0,0,0,0],"sum_hessian":[1.0696725E1,1.7583399E0,8.938385E0,1.8319347E0,7.10645E0,5.4014473E0,1.7050029E0,2.264994E0,3.1364534E0,1.1985238E0,1.0664701E0,1.5813655E0,1.5550878E0],"tree_param":{"num_deleted":"0","num_feature":"6","num_nodes":"13","size_leaf_vector":"1"}},{"base_weights":[5.927489E-3,5.1721714E-2,-8.621881E-2,-8.996781E-2,1.1286284E-1,3.025983E-2,-1.6507882E-1,4.230559E-3,-4.744639E-2,8.6437374E-2,7.268749E-4,-9.513618E-2,2.1177107E-2,6.4092696E-2,-1.0337815E-1,-9.428516E-2,3.1628862E-2],"categories":[],"categories_nodes":[],"categories_segments":[],"categories_sizes":[],"default_left":[0,0,0,0,0,0,0,0,0,0,0,0,0,0,0,0,0],"id":55,"left_children":[1,3,5,7,9,-1,11,-1,-1,-1,13,-1,-1,-1,15,-1,-1],"loss_changes":[5.883588E-2,9.01415E-2,8.5298434E-2,2.5929235E-2,1.3526933E-1,0E0,1.5326063E-1,0E0,0E0,0E0,1.3748738E-1,0E0,0E0,0E0,2.1680087E-1,0E0,0E0],"parents":[2147483647,0,0,1,1,2,2,3,3,4,4,6,6,10,10,14,14],"right_children":[2,4,6,8,10,-1,12,-1,-1,-1,14,-1,-1,-1,16,-1,-1],"split_conditions":[3.772E-1,1.7999292E2,1E0,4E1,2.0164389E2,3.025983E-2,6.820086E1,4.230559E-3,-4.744639E-2,8.6437374E-2,3E1,-9.513618E-2,2.1177107E-2,6.4092696E-2,4.1E1,-9.428516E-2,3.1628862E-2],"split_indices":[0,3,5,2,3,0,4,0,0,0,2,0,0,0,2,0,0],"split_type":[0,0,0,0,0,0,0,0,0,0,0,0,0,0,0,0,0],"sum_hessian":[1.1886132E1,8.23317E0,3.652963E0,2.3396788E0,5.893491E0,1.0004575E0,2.6525054E0,1.2401286E0,1.0995501E0,1.6871524E0,4.2063384E0,1.4022362E0,1.2502692E0,1.0357807E0,3.1705577E0,1.3260493E0,1.8445083E0],"tree_param":{"num_deleted":"0","num_feature":"6","num_nodes":"17","size_leaf_vector":"1"}},{"base_weights":[-1.9674813E-2,-5.151325E-2,1.1153603E-2,4.7741663E-2,-3.1099275E-2,6.090419E-2,-7.428384E-2,1.3481538E-1,-3.9850775E-2,-3.475058E-2,2.1722785E-1,6.1750594E-3,8.563542E-2],"categories":[],"categories_nodes":[],"categories_segments":[],"categories_sizes":[],"default_left":[0,0,0,0,0,0,0,0,0,0,0,0,0],"id":56,"left_children":[1,-1,3,-1,5,7,-1,9,-1,-1,11,-1,-1],"loss_changes":[5.803324E-2,0E0,7.306443E-2,0E0,2.005472E-1,1.2296578E-1,0E0,1.4511526E-1,0E0,0E0,5.741839E-2,0E0,0E0],"parents":[2147483647,0,0,2,2,4,4,5,5,7,7,10,10],"right_children":[2,-1,4,-1,6,8,-1,10,-1,-1,12,-1,-1],"split_conditions":[4.9042896E1,-5.151325E-2,5.2214684E1,4.7741663E-2,2.1518628E2,7.838104E1,-7.428384E-2,5.6913876E1,-3.9850775E-2,-3.475058E-2,4.06E-2,6.1750594E-3,8.563542E-2],"split_indices":[4,0,4,0,3,4,0,4,0,0,0,0,0],"split_type":[0,0,0,0,0,0,0,0,0,0,0,0,0],"sum_hessian":[1.0973052E1,1.0794849E0,9.893567E0,1.5829931E0,8.310574E0,6.3366394E0,1.9739345E0,4.806948E0,1.5296911E0,1.0890719E0,3.7178762E0,1.2929235E0,2.4249527E0],"tree_param":{"num_deleted":"0","num_feature":"6","num_nodes":"13","size_leaf_vector":"1"}},{"base_weights":[1.3345953E-2,1.295006E-1,-3.4310553E-2,6.683808E-2,-1.1620165E-2,4.6327636E-2,-8.757092E-2,-1.7958076E-1,1.06625326E-1,-9.841219E-2,-4.440136E-2,7.184222E-2,-2.3771543E-2,-3.919027E-2,3.0804148E-2],"categories":[],"categories_nodes":[],"categories_segments":[],"categories_sizes":[],"default_left":[0,0,0,0,0,0,0,0,0,0,0,0,0,0,0],"id":57,"left_children":[1,3,5,-1,-1,-1,7,9,11,-1,13,-1,-1,-1,-1],"loss_changes":[6.664969E-2,6.3229084E-2,1.01569176E-1,0E0,0E0,0E0,1.5260953E-1,9.462093E-2,9.37595E-2,0E0,6.420033E-2,0E0,0E0,0E0,0E0],"parents":[2147483647,0,0,1,1,2,2,6,6,7,7,8,8,10,10],"right_children":[2,4,6,-1,-1,-1,8,10,12,-1,14,-1,-1,-1,-1],"split_conditions":[5.0609707E1,4.5E1,0E0,6.683808E-2,-1.1620165E-2,4.6327636E-2,5.267E-1,1.9779816E2,1.4719366E2,-9.841219E-2,6.7063545E1,7.184222E-2,-2.3771543E-2,-3.919027E-2,3.0804148E-2],"split_indices":[4,2,0,0,0,0,0,3,3,0,4,0,0,0,0],"split_type":[0,0,0,0,0,0,0,0,0,0,0,0,0,0,0],"sum_hessian":[1.02376795E1,2.4787567E0,7.758923E0,1.3859088E0,1.0928477E0,1.289598E0,6.469325E0,4.4406257E0,2.0286994E0,1.4364017E0,3.004224E0,1.0148692E0,1.0138301E0,1.9643615E0,1.0398626E0],"tree_param":{"num_deleted":"0","num_feature":"6","num_nodes":"15","size_leaf_vector":"1"}},{"base_weights":[5.104076E-3,3.1243289E-2,-4.32868E-2,-1.0609464E-2,6.710908E-2,6.6895835E-2,-1.7562434E-1,-3.360552E-2,7.53701E-2,-8.5653685E-2,-3.4819706E-3,9.5327936E-2,-1.457839E-1,7.2066516E-2,-3.045542E-2,7.6425257E-3,-8.416034E-2],"categories":[],"categories_nodes":[],"categories_segments":[],"categories_sizes":[],"default_left":[0,0,0,0,0,0,0,0,0,0,0,0,0,0,0,0,0],"id":58,"left_children":[1,3,-1,5,-1,7,9,11,-1,-1,-1,13,15,-1,-1,-1,-1],"loss_changes":[5.2549165E-2,9.333029E-2,0E0,1.4258564E-1,0E0,1.5081382E-1,6.058289E-2,9.858681E-2,0E0,0E0,0E0,1.1933217E-1,8.852867E-2,0E0,0E0,0E0,0E0],"parents":[2147483647,0,0,1,1,3,3,5,5,6,6,7,7,11,11,12,12],"right_children":[2,4,-1,6,-1,8,10,12,-1,-1,-1,14,16,-1,-1,-1,-1],"split_conditions":[8.813694E1,7.838104E1,-4.32868E-2,4.2E1,6.710908E-2,3.8E1,4.7E1,3E1,7.53701E-2,-8.5653685E-2,-3.4819706E-3,3.772E-1,2.0164389E2,7.2066516E-2,-3.045542E-2,7.6425257E-3,-8.416034E-2],"split_indices":[4,4,0,2,0,2,2,2,0,0,0,0,3,0,0,0,0],"split_type":[0,0,0,0,0,0,0,0,0,0,0,0,0,0,0,0,0],"sum_hessian":[1.1302376E1,1.0292392E1,1.0099837E0,9.230019E0,1.0623729E0,6.684844E0,2.545175E0,4.855378E0,1.8294656E0,1.0805157E0,1.4646592E0,2.3288734E0,2.526505E0,1.2145314E0,1.114342E0,1.4696387E0,1.0568662E0],"tree_param":{"num_deleted":"0","num_feature":"6","num_nodes":"17","size_leaf_vector":"1"}},{"base_weights":[-1.8563174E-2,3.595272E-2,-5.0173152E-2,2.5343029E-2,-1.620719E-1,-6.789056E-2,5.5889744E-2,-8.3436996E-2,-3.688678E-2,-1.2167048E-1,2.1609223E-2,2.6487106E-2,-4.509219E-2,-5.7744034E-2,-3.963402E-3],"categories":[],"categories_nodes":[],"categories_segments":[],"categories_sizes":[],"default_left":[0,0,0,0,0,0,0,0,0,0,0,0,0,0,0],"id":59,"left_children":[1,-1,3,5,7,9,-1,-1,11,13,-1,-1,-1,-1,-1],"loss_changes":[5.6158766E-2,0E0,8.8911325E-2,1.1554427E-1,5.0452977E-2,4.695099E-2,0E0,0E0,5.8182012E-2,2.8465755E-2,0E0,0E0,0E0,0E0,0E0],"parents":[2147483647,0,0,2,2,3,3,4,4,5,5,8,8,9,9],"right_children":[2,-1,4,6,8,10,-1,-1,12,14,-1,-1,-1,-1,-1],"split_conditions":[2.6E1,3.595272E-2,6.6194016E1,4.5E1,7.21765E1,5.6913876E1,5.5889744E-2,-8.3436996E-2,7.8365234E1,2.0130255E2,2.1609223E-2,2.6487106E-2,-4.509219E-2,-5.7744034E-2,-3.963402E-3],"split_indices":[2,0,4,2,4,4,0,0,4,3,0,0,0,0,0],"split_type":[0,0,0,0,0,0,0,0,0,0,0,0,0,0,0],"sum_hessian":[1.0461926E1,1.4261568E0,9.03577E0,5.8567753E0,3.178995E0,4.07471E0,1.7820652E0,1.0157028E0,2.163292E0,3.037614E0,1.0370959E0,1.1336737E0,1.0296184E0,1.3690954E0,1.6685185E0],"tree_param":{"num_deleted":"0","num_feature":"6","num_nodes":"15","size_leaf_vector":"1"}},{"base_weights":[1.4918285E-2,1.0552018E-1,-3.9449833E-2,5.734175E-2,5.8710657E-4,-1.17375635E-1,4.2067975E-2,-6.560189E-2,-2.8015923E-2,3.2155182E-2,-4.2326394E-2],"categories":[],"categories_nodes":[],"categories_segments":[],"categories_sizes":[],"default_left":[0,0,0,0,0,0,0,0,0,0,0],"id":60,"left_children":[1,3,5,-1,-1,7,-1,-1,9,-1,-1],"loss_changes":[5.734798E-2,3.7943527E-2,1.21130705E-1,0E0,0E0,4.6000615E-2,0E0,0E0,7.9429485E-2,0E0,0E0],"parents":[2147483647,0,0,1,1,2,2,5,5,8,8],"right_children":[2,4,6,-1,-1,8,-1,-1,10,-1,-1],"split_conditions":[1.7999292E2,5.629844E1,2.2367986E2,5.734175E-2,5.8710657E-4,5.6889954E1,4.2067975E-2,-6.560189E-2,2.0927727E2,3.2155182E-2,-4.2326394E-2],"split_indices":[3,4,3,0,0,4,0,0,3,0,0],"split_type":[0,0,0,0,0,0,0,0,0,0,0],"sum_hessian":[9.797157E0,3.321383E0,6.475774E0,1.3552912E0,1.9660919E0,4.7586727E0,1.7171013E0,1.552108E0,3.2065644E0,1.4841026E0,1.7224619E0],"tree_param":{"num_deleted":"0","num_feature":"6","num_nodes":"11","size_leaf_vector":"1"}},{"base_weights":[3.2122515E-3,3.1173768E-2,-4.0278524E-2,-4.0876176E-2,1.3954748E-1,2.7925218E-2,-1.09258056E-1,2.1786289E-1,-1.1497778E-2,-2.3644629E-1,2.5268378E-2,1.4598484E-2,8.142341E-2,-8.289467E-3,-9.503154E-2],"categories":[],"categories_nodes":[],"categories_segments":[],"categories_sizes":[],"default_left":[0,0,0,0,0,0,0,0,0,0,0,0,0,0,0],"id":61,"left_children":[1,3,-1,5,7,-1,9,11,-1,13,-1,-1,-1,-1,-1],"loss_changes":[4.964134E-2,8.876993E-2,0E0,7.578976E-2,7.068413E-2,0E0,1.479449E-1,1.6297638E-2,0E0,4.8304573E-2,0E0,0E0,0E0,0E0,0E0],"parents":[2147483647,0,0,1,1,3,3,4,4,6,6,7,7,9,9],"right_children":[2,4,-1,6,8,-1,10,12,-1,14,-1,-1,-1,-1,-1],"split_conditions":[2.2367986E2,2.0927727E2,-4.0278524E-2,5.6113884E1,4.06E-2,2.7925218E-2,7.956339E1,5.2214684E1,-1.1497778E-2,3.4E1,2.5268378E-2,1.4598484E-2,8.142341E-2,-8.289467E-3,-9.503154E-2],"split_indices":[3,3,0,4,0,0,4,4,0,2,0,0,0,0,0],"split_type":[0,0,0,0,0,0,0,0,0,0,0,0,0,0,0],"sum_hessian":[1.08252125E1,9.638109E0,1.187104E0,6.163356E0,3.4747531E0,1.9608359E0,4.20252E0,2.2564478E0,1.2183053E0,2.401716E0,1.800804E0,1.0013003E0,1.2551475E0,1.0405886E0,1.3611273E0],"tree_param":{"num_deleted":"0","num_feature":"6","num_nodes":"15","size_leaf_vector":"1"}},{"base_weights":[-1.8030528E-2,-4.75231E-2,1.1820767E-2,4.2519018E-2,-2.7050968E-2,5.53084E-2,-6.550096E-2,6.76745E-2,-3.0816888E-2,-5.7144593E-2,9.2001535E-2,-2.1823362E-2,5.956835E-2],"categories":[],"categories_nodes":[],"categories_segments":[],"categories_sizes":[],"default_left":[0,0,0,0,0,0,0,0,0,0,0,0,0],"id":62,"left_children":[1,-1,3,-1,5,7,-1,-1,9,-1,11,-1,-1],"loss_changes":[4.8136696E-2,0E0,5.450755E-2,0E0,1.4698513E-1,1.06437184E-1,0E0,0E0,1.2312351E-1,0E0,7.971508E-2,0E0,0E0],"parents":[2147483647,0,0,2,2,4,4,5,5,8,8,10,10],"right_children":[2,-1,4,-1,6,8,-1,-1,10,-1,12,-1,-1],"split_conditions":[4.9042896E1,-4.75231E-2,5.2214684E1,4.2519018E-2,2.1518628E2,2.8E1,-6.550096E-2,6.76745E-2,1.6774553E2,-5.7144593E-2,4.06E-2,-2.1823362E-2,5.956835E-2],"split_indices":[4,0,4,0,3,2,0,0,3,0,0,0,0],"split_type":[0,0,0,0,0,0,0,0,0,0,0,0,0],"sum_hessian":[1.0040199E1,1.0054209E0,9.034778E0,1.4713691E0,7.563409E0,5.783948E0,1.7794609E0,1.3989464E0,4.3850017E0,1.6669837E0,2.7180178E0,1.1921831E0,1.5258347E0],"tree_param":{"num_deleted":"0","num_feature":"6","num_nodes":"13","size_leaf_vector":"1"}},{"base_weights":[1.1789658E-2,1.2289134E-1,-3.5413273E-2,6.5356135E-2,-1.1503041E-2,4.4276558E-2,-8.800408E-2,-2.1149583E-1,4.2242516E-2,-9.1601744E-2,-9.1196215E-3,4.5257717E-2,-1.6395763E-2],"categories":[],"categories_nodes":[],"categories_segments":[],"categories_sizes":[],"default_left":[0,0,0,0,0,0,0,0,0,0,0,0,0],"id":63,"left_children":[1,3,5,-1,-1,-1,7,9,11,-1,-1,-1,-1],"loss_changes":[5.9369426E-2,5.967419E-2,9.131995E-2,0E0,0E0,0E0,1.2069824E-1,5.41642E-2,5.260873E-2,0E0,0E0,0E0,0E0],"parents":[2147483647,0,0,1,1,2,2,6,6,7,7,8,8],"right_children":[2,4,6,-1,-1,-1,8,10,12,-1,-1,-1,-1],"split_conditions":[5.0609707E1,2.1338437E2,0E0,6.5356135E-2,-1.1503041E-2,4.4276558E-2,3.772E-1,2.080291E2,3.6E1,-9.1601744E-2,-9.1196215E-3,4.5257717E-2,-1.6395763E-2],"split_indices":[4,3,0,0,0,0,0,3,2,0,0,0,0],"split_type":[0,0,0,0,0,0,0,0,0,0,0,0,0],"sum_hessian":[9.490853E0,2.3518434E0,7.1390095E0,1.2591082E0,1.0927353E0,1.1903964E0,5.948613E0,2.7332778E0,3.2153354E0,1.3484619E0,1.3848159E0,1.2533896E0,1.9619457E0],"tree_param":{"num_deleted":"0","num_feature":"6","num_nodes":"13","size_leaf_vector":"1"}},{"base_weights":[3.7117233E-3,2.8591488E-2,-3.5459887E-2,7.696737E-2,-8.839591E-2,-9.84996E-2,1.6071364E-1,-4.9641613E-2,1.221222E-2,-4.9679657E-4,-4.6012934E-2,8.0317564E-2,5.8232643E-2,-1.7605815E-2,5.0841223E-2],"categories":[],"categories_nodes":[],"categories_segments":[],"categories_sizes":[],"default_left":[0,0,0,0,0,0,0,0,0,0,0,0,0,0,0],"id":64,"left_children":[1,3,-1,5,7,9,11,-1,-1,-1,-1,-1,13,-1,-1],"loss_changes":[3.8143333E-2,6.523098E-2,0E0,1.3101245E-1,4.1420996E-2,1.64994E-2,4.6765357E-2,0E0,0E0,0E0,0E0,0E0,6.434138E-2,0E0,0E0],"parents":[2147483647,0,0,1,1,3,3,4,4,5,5,6,6,12,12],"right_children":[2,4,-1,6,8,10,12,-1,-1,-1,-1,-1,14,-1,-1],"split_conditions":[2.2367986E2,3.772E-1,-3.5459887E-2,1.7999292E2,6.249E-1,4E1,2.0164389E2,-4.9641613E-2,1.221222E-2,-4.9679657E-4,-4.6012934E-2,8.0317564E-2,4.1E1,-1.7605815E-2,5.0841223E-2],"split_indices":[3,0,0,3,0,2,3,0,0,0,0,0,2,0,0],"split_type":[0,0,0,0,0,0,0,0,0,0,0,0,0,0,0],"sum_hessian":[1.0461388E1,9.32401E0,1.137378E0,6.838348E0,2.4856617E0,2.1524086E0,4.6859393E0,1.3800526E0,1.1056092E0,1.1511315E0,1.0012771E0,1.5035167E0,3.1824226E0,1.7819268E0,1.4004958E0],"tree_param":{"num_deleted":"0","num_feature":"6","num_nodes":"15","size_leaf_vector":"1"}},{"base_weights":[-1.5578903E-2,3.1876676E-2,-4.4117033E-2,2.6083788E-2,-1.4913075E-1,-6.1419994E-2,5.138951E-2,-7.667254E-3,-7.083539E-2,-1.12006634E-1,1.1760477E-2,-5.3712025E-2,5.4897354E-3],"categories":[],"categories_nodes":[],"categories_segments":[],"categories_sizes":[],"default_left":[0,0,0,0,0,0,0,0,0,0,0,0,0],"id":65,"left_children":[1,-1,3,5,7,9,-1,-1,-1,11,-1,-1,-1],"loss_changes":[4.1786008E-2,0E0,7.282974E-2,9.25552E-2,3.584048E-2,2.864273E-2,0E0,0E0,0E0,3.3235066E-2,0E0,0E0,0E0],"parents":[2147483647,0,0,2,2,3,3,4,4,5,5,9,9],"right_children":[2,-1,4,6,8,10,-1,-1,-1,12,-1,-1,-1],"split_conditions":[2.6E1,3.1876676E-2,6.6194016E1,4.5E1,2.5E-1,4.364E-1,5.138951E-2,-7.667254E-3,-7.083539E-2,2.1129384E2,1.1760477E-2,-5.3712025E-2,5.4897354E-3],"split_indices":[2,0,4,2,0,0,0,0,0,3,0,0,0],"split_type":[0,0,0,0,0,0,0,0,0,0,0,0,0],"sum_hessian":[9.669857E0,1.3183396E0,8.351518E0,5.455905E0,2.8956127E0,3.764514E0,1.6913908E0,1.7307428E0,1.16487E0,2.4298036E0,1.3347105E0,1.3574752E0,1.0723283E0],"tree_param":{"num_deleted":"0","num_feature":"6","num_nodes":"13","size_leaf_vector":"1"}},{"base_weights":[9.504063E-3,1.1795421E-1,-3.6668856E-2,6.1133567E-2,-9.453426E-3,4.150053E-2,-8.7062955E-2,-1.6729221E-1,2.5075605E-2,-9.023035E-2,-4.2725023E-2,-3.8513158E-2,2.044644E-2],"categories":[],"categories_nodes":[],"categories_segments":[],"categories_sizes":[],"default_left":[0,0,0,0,0,0,0,0,0,0,0,0,0],"id":66,"left_children":[1,3,5,-1,-1,-1,7,9,-1,-1,11,-1,-1],"loss_changes":[5.538087E-2,4.8519757E-2,8.1839636E-2,0E0,0E0,0E0,1.0651256E-1,6.912395E-2,0E0,0E0,4.4039022E-2,0E0,0E0],"parents":[2147483647,0,0,1,1,2,2,6,6,7,7,10,10],"right_children":[2,4,6,-1,-1,-1,8,10,-1,-1,12,-1,-1],"split_conditions":[5.0609707E1,2.1338437E2,0E0,6.1133567E-2,-9.453426E-3,4.150053E-2,5.267E-1,1.9779816E2,2.5075605E-2,-9.023035E-2,3.612E-1,-3.8513158E-2,2.044644E-2],"split_indices":[4,3,0,0,0,0,0,3,0,0,0,0,0],"split_type":[0,0,0,0,0,0,0,0,0,0,0,0,0],"sum_hessian":[9.195914E0,2.281813E0,6.914101E0,1.2186651E0,1.0631478E0,1.155684E0,5.758417E0,3.9302847E0,1.8281324E0,1.2144645E0,2.71582E0,1.4431864E0,1.2726338E0],"tree_param":{"num_deleted":"0","num_feature":"6","num_nodes":"13","size_leaf_vector":"1"}},{"base_weights":[3.5620986E-3,-7.9650454E-2,3.732937E-2,2.3493087E-2,-5.6889456E-2,8.966234E-2,-3.6910586E-2,-6.5634884E-2,3.623839E-2,-7.012076E-2,6.1939072E-2,-5.7401292E-2,2.4916217E-2],"categories":[],"categories_nodes":[],"categories_segments":[],"categories_sizes":[],